-8.946792483329772949e-01 -9.653325676918029785e-01 6.773536801338195801e-01 -1.596795082092285156e+00 -9.815595746040344238e-01 -2.278838157653808594e+00 -9.813352823257446289e-01 -4.433075189590454102e-01 -1.481112599372863770e+00 2.993316054344177246e-01 -4.337179958820343018e-01 -1.336492300033569336e+00 -8.553477525711059570e-01 -1.677610725164413452e-01 -1.056674361228942871e+00 -6.541148424148559570e-01 -1.000081300735473633e+00 -9.500888735055923462e-02 -2.789018750190734863e-01 3.504898250102996826e-01 -1.888968944549560547e-01 -2.350532054901123047e+00 -2.522362470626831055e+00 1.315561890602111816e+00 1.526015877723693848e+00 8.180807530879974365e-02 -1.664706707000732422e+00 2.486047267913818359e+00 1.031518340110778809e+00 -9.999861121177673340e-01 -1.220599174499511719e+00 1.115232706069946289e+00 -4.509027302265167236e-01 -5.208110809326171875e-01 -4.277082979679107666e-01 5.474680066108703613e-01 1.422779083251953125e+00 1.678712725639343262e+00 -1.868960261344909668e+00 -5.529624819755554199e-01 -2.775397777557373047e+00 -7.112888991832733154e-02 1.078786134719848633e+00 7.506229728460311890e-02 3.443898856639862061e-01 1.145234555006027222e-01 -1.352592229843139648e+00 -1.715307116508483887e+00 -1.000010371208190918e+00 -3.874235153198242188e-01 1.084134459495544434e+00 3.328682184219360352e-01 -4.611212015151977539e-01 -4.730187952518463135e-01 -8.800040483474731445e-01 -1.139616966247558594e+00 8.442841172218322754e-01 -3.041304826736450195e+00 1.210738345980644226e-01 -7.884842753410339355e-01 1.241428732872009277e+00 -1.126981019973754883e+00 -3.033642172813415527e-01 -7.344242930412292480e-01
-8.911881446838378906e-01 -9.627465009689331055e-01 6.714089512825012207e-01 -1.592570662498474121e+00 -9.752995371818542480e-01 -2.267204999923706055e+00 -9.813814163208007812e-01 -4.427528381347656250e-01 -1.477279543876647949e+00 2.986395955085754395e-01 -4.321187734603881836e-01 -1.330942392349243164e+00 -8.547028303146362305e-01 -1.718576252460479736e-01 -1.049378514289855957e+00 -6.475147008895874023e-01 -1.000075459480285645e+00 -9.595922380685806274e-02 -2.755492031574249268e-01 3.542732000350952148e-01 -1.869129091501235962e-01 -2.346015214920043945e+00 -2.511791467666625977e+00 1.311921000480651855e+00 1.520878553390502930e+00 7.947582006454467773e-02 -1.661184549331665039e+00 2.477443695068359375e+00 1.028470754623413086e+00 -1.000002980232238770e+00 -1.216635704040527344e+00 1.110468506813049316e+00 -4.464100599288940430e-01 -5.182564854621887207e-01 -4.258144497871398926e-01 5.442277193069458008e-01 1.416038632392883301e+00 1.674701571464538574e+00 -1.863936066627502441e+00 -5.562350153923034668e-01 -2.769013404846191406e+00 -6.435013562440872192e-02 1.069635152816772461e+00 7.117678225040435791e-02 3.441104888916015625e-01 1.148669645190238953e-01 -1.349582195281982422e+00 -1.709186911582946777e+00 -1.000009059906005859e+00 -3.891991972923278809e-01 1.084044933319091797e+00 3.289003670215606689e-01 -4.577074348926544189e-01 -4.728072583675384521e-01 -8.708375692367553711e-01 -1.135191679000854492e+00 8.398690819740295410e-01 -3.034447193145751953e+00 1.139968037605285645e-01 -7.788088321685791016e-01 1.239456415176391602e+00 -1.120246887207031250e+00 -3.022118508815765381e-01 -7.312666177749633789e-01
-8.363659977912902832e-01 -9.221360683441162109e-01 5.780563950538635254e-01 -1.526232361793518066e+00 -8.769950270652770996e-01 -2.084522724151611328e+00 -9.821053743362426758e-01 -4.340421855449676514e-01 -1.417087197303771973e+00 2.877724766731262207e-01 -4.070053696632385254e-01 -1.243789315223693848e+00 -8.445744514465332031e-01 -2.361877858638763428e-01 -9.348083138465881348e-01 -5.438693165779113770e-01 -9.999842643737792969e-01 -1.108827590942382812e-01 -2.229008674621582031e-01 4.136856496334075928e-01 -1.557574719190597534e-01 -2.275086164474487305e+00 -2.345791339874267578e+00 1.254746317863464355e+00 1.440204858779907227e+00 4.285127669572830200e-02 -1.605874896049499512e+00 2.342338085174560547e+00 9.806134700775146484e-01 -1.000267744064331055e+00 -1.154395699501037598e+00 1.035655498504638672e+00 -3.758595585823059082e-01 -4.781406521797180176e-01 -3.960743546485900879e-01 4.933443367481231689e-01 1.310191273689270020e+00 1.611712217330932617e+00 -1.785039067268371582e+00 -6.076254248619079590e-01 -2.668758630752563477e+00 4.209984838962554932e-02 9.259344935417175293e-01 1.016065198928117752e-02 3.397229015827178955e-01 1.202613040804862976e-01 -1.302313923835754395e+00 -1.613078355789184570e+00 -9.999896883964538574e-01 -4.170835912227630615e-01 1.082639217376708984e+00 2.665913403034210205e-01 -4.040996134281158447e-01 -4.694854319095611572e-01 -7.268919348716735840e-01 -1.065698385238647461e+00 7.705370187759399414e-01 -2.926757812500000000e+00 2.862883498892188072e-03 -6.268714070320129395e-01 1.208483457565307617e+00 -1.014498472213745117e+00 -2.841158807277679443e-01 -6.816795468330383301e-01
-8.963458538055419922e-01 -9.665671586990356445e-01 6.801915764808654785e-01 -1.598811745643615723e+00 -9.845480322837829590e-01 -2.284391641616821289e+00 -9.813132882118225098e-01 -4.435723125934600830e-01 -1.482942342758178711e+00 2.996619641780853271e-01 -4.344814419746398926e-01 -1.339141845703125000e+00 -8.556556701660156250e-01 -1.658054143190383911e-01 -1.060157299041748047e+00 -6.572656631469726562e-01 -1.000084042549133301e+00 -9.455520659685134888e-02 -2.805023789405822754e-01 3.486836850643157959e-01 -1.898440122604370117e-01 -2.352688312530517578e+00 -2.527408838272094727e+00 1.317299962043762207e+00 1.528468370437622070e+00 8.292146772146224976e-02 -1.666388034820556641e+00 2.490154504776000977e+00 1.032973170280456543e+00 -9.999780654907226562e-01 -1.222491264343261719e+00 1.117506980895996094e+00 -4.530474841594696045e-01 -5.220305919647216797e-01 -4.286124110221862793e-01 5.490148663520812988e-01 1.425996780395507812e+00 1.680627584457397461e+00 -1.871358752250671387e+00 -5.514001846313476562e-01 -2.778445482254028320e+00 -7.436498254537582397e-02 1.083154559135437012e+00 7.691720128059387207e-02 3.445232808589935303e-01 1.143594607710838318e-01 -1.354029297828674316e+00 -1.718228816986083984e+00 -1.000010848045349121e+00 -3.865758180618286133e-01 1.084177136421203613e+00 3.347624242305755615e-01 -4.627508819103240967e-01 -4.731197953224182129e-01 -8.843800425529479980e-01 -1.141729593276977539e+00 8.463918566703796387e-01 -3.044578552246093750e+00 1.244523227214813232e-01 -7.931031584739685059e-01 1.242370367050170898e+00 -1.130195736885070801e+00 -3.039143383502960205e-01 -7.359317541122436523e-01
-8.870005011558532715e-01 -9.596444368362426758e-01 6.642780900001525879e-01 -1.587503314018249512e+00 -9.677904248237609863e-01 -2.253250598907470703e+00 -9.814367294311523438e-01 -4.420874416828155518e-01 -1.472681641578674316e+00 2.978094816207885742e-01 -4.302004575729370117e-01 -1.324285149574279785e+00 -8.539291620254516602e-01 -1.767715662717819214e-01 -1.040626883506774902e+00 -6.395975947380065918e-01 -1.000068545341491699e+00 -9.709917008876800537e-02 -2.715276181697845459e-01 3.588114976882934570e-01 -1.845330595970153809e-01 -2.340597391128540039e+00 -2.499111413955688477e+00 1.307553648948669434e+00 1.514716148376464844e+00 7.667820900678634644e-02 -1.656959652900695801e+00 2.467123508453369141e+00 1.024815082550048828e+00 -1.000023245811462402e+00 -1.211881399154663086e+00 1.104753851890563965e+00 -4.410209953784942627e-01 -5.151922106742858887e-01 -4.235427081584930420e-01 5.403409600257873535e-01 1.407953381538391113e+00 1.669890046119689941e+00 -1.857909440994262695e+00 -5.601605772972106934e-01 -2.761355400085449219e+00 -5.621882155537605286e-02 1.058658480644226074e+00 6.651598960161209106e-02 3.437753319740295410e-01 1.152790188789367676e-01 -1.345971584320068359e+00 -1.701845526695251465e+00 -1.000007629394531250e+00 -3.913291692733764648e-01 1.083937525749206543e+00 3.241408169269561768e-01 -4.536125361919403076e-01 -4.725535213947296143e-01 -8.598421216011047363e-01 -1.129883289337158203e+00 8.345730304718017578e-01 -3.026221275329589844e+00 1.055077016353607178e-01 -7.672029137611389160e-01 1.237090468406677246e+00 -1.112169146537780762e+00 -3.008295893669128418e-01 -7.274788618087768555e-01
-8.887997865676879883e-01 -9.609773159027099609e-01 6.673420071601867676e-01 -1.589680552482604980e+00 -9.710168242454528809e-01 -2.259246349334716797e+00 -9.814129471778869629e-01 -4.423733353614807129e-01 -1.474657177925109863e+00 2.981661558151245117e-01 -4.310247004032135010e-01 -1.327145576477050781e+00 -8.542615771293640137e-01 -1.746602058410644531e-01 -1.044387102127075195e+00 -6.429993510246276855e-01 -1.000071525573730469e+00 -9.660936892032623291e-02 -2.732555568218231201e-01 3.568615615367889404e-01 -1.855556070804595947e-01 -2.342925310134887695e+00 -2.504559516906738281e+00 1.309430122375488281e+00 1.517363905906677246e+00 7.788025587797164917e-02 -1.658774971961975098e+00 2.471557617187500000e+00 1.026385784149169922e+00 -1.000014543533325195e+00 -1.213924169540405273e+00 1.107209324836730957e+00 -4.433364868164062500e-01 -5.165088176727294922e-01 -4.245187938213348389e-01 5.420109629631042480e-01 1.411427378654479980e+00 1.671957373619079590e+00 -1.860498905181884766e+00 -5.584738850593566895e-01 -2.764645814895629883e+00 -5.971258506178855896e-02 1.063374757766723633e+00 6.851857900619506836e-02 3.439193367958068848e-01 1.151019707322120667e-01 -1.347522974014282227e+00 -1.704999923706054688e+00 -1.000008225440979004e+00 -3.904139995574951172e-01 1.083983659744262695e+00 3.261858522891998291e-01 -4.553719758987426758e-01 -4.726625680923461914e-01 -8.645665049552917480e-01 -1.132164120674133301e+00 8.368485569953918457e-01 -3.029755592346191406e+00 1.091552004218101501e-01 -7.721896171569824219e-01 1.238107085227966309e+00 -1.115639925003051758e+00 -3.014234900474548340e-01 -7.291063070297241211e-01
-8.961160778999328613e-01 -9.663969874382019043e-01 6.798004508018493652e-01 -1.598533749580383301e+00 -9.841361045837402344e-01 -2.283626317977905273e+00 -9.813163280487060547e-01 -4.435358345508575439e-01 -1.482690215110778809e+00 2.996164262294769287e-01 -4.343762099742889404e-01 -1.338776588439941406e+00 -8.556132316589355469e-01 -1.660749763250350952e-01 -1.059677124023437500e+00 -6.568313837051391602e-01 -1.000083684921264648e+00 -9.461773931980133057e-02 -2.802817821502685547e-01 3.489326238632202148e-01 -1.897134631872177124e-01 -2.352391004562377930e+00 -2.526713132858276367e+00 1.317060470581054688e+00 1.528130292892456055e+00 8.276800066232681274e-02 -1.666156291961669922e+00 2.489588260650634766e+00 1.032772660255432129e+00 -9.999791979789733887e-01 -1.222230434417724609e+00 1.117193460464477539e+00 -4.527518451213836670e-01 -5.218625068664550781e-01 -4.284877777099609375e-01 5.488016605377197266e-01 1.425553321838378906e+00 1.680363655090332031e+00 -1.871028184890747070e+00 -5.516155362129211426e-01 -2.778025388717651367e+00 -7.391892373561859131e-02 1.082552433013916016e+00 7.666151970624923706e-02 3.445048928260803223e-01 1.143820658326148987e-01 -1.353831171989440918e+00 -1.717826128005981445e+00 -1.000010848045349121e+00 -3.866926729679107666e-01 1.084171295166015625e+00 3.345013260841369629e-01 -4.625262320041656494e-01 -4.731058776378631592e-01 -8.837768435478210449e-01 -1.141438364982604980e+00 8.461012840270996094e-01 -3.044127225875854492e+00 1.239866316318511963e-01 -7.924665212631225586e-01 1.242240548133850098e+00 -1.129752635955810547e+00 -3.038385212421417236e-01 -7.357239723205566406e-01
-8.922191858291625977e-01 -9.635102748870849609e-01 6.731646656990051270e-01 -1.593818306922912598e+00 -9.771483540534973145e-01 -2.270640611648559570e+00 -9.813677668571472168e-01 -4.429166615009307861e-01 -1.478411555290222168e+00 2.988439798355102539e-01 -4.325910806655883789e-01 -1.332581520080566406e+00 -8.548932671546936035e-01 -1.706477403640747070e-01 -1.051533222198486328e+00 -6.494640111923217773e-01 -1.000077247619628906e+00 -9.567854553461074829e-02 -2.765393853187561035e-01 3.531558215618133545e-01 -1.874988526105880737e-01 -2.347349166870117188e+00 -2.514913558959960938e+00 1.312996268272399902e+00 1.522395849227905273e+00 8.016463369131088257e-02 -1.662224769592285156e+00 2.479984760284423828e+00 1.029370784759521484e+00 -9.999980330467224121e-01 -1.217806339263916016e+00 1.111875534057617188e+00 -4.477369487285614014e-01 -5.190109610557556152e-01 -4.263737797737121582e-01 5.451847314834594727e-01 1.418029427528381348e+00 1.675886273384094238e+00 -1.865419983863830566e+00 -5.552685260772705078e-01 -2.770899057388305664e+00 -6.635218113660812378e-02 1.072337865829467773e+00 7.232433557510375977e-02 3.441930115222930908e-01 1.147655099630355835e-01 -1.350471258163452148e+00 -1.710994482040405273e+00 -1.000009417533874512e+00 -3.886747658252716064e-01 1.084071397781372070e+00 3.300722539424896240e-01 -4.587156474590301514e-01 -4.728697538375854492e-01 -8.735448122024536133e-01 -1.136498689651489258e+00 8.411729931831359863e-01 -3.036472558975219727e+00 1.160869449377059937e-01 -7.816663980484008789e-01 1.240038990974426270e+00 -1.122235774993896484e+00 -3.025521934032440186e-01 -7.321991920471191406e-01
-8.814353346824645996e-01 -9.555219411849975586e-01 6.548016071319580078e-01 -1.580769062042236328e+00 -9.578112363815307617e-01 -2.234705924987792969e+00 -9.815102219581604004e-01 -4.412032067775726318e-01 -1.466571331024169922e+00 2.967063486576080322e-01 -4.276511073112487793e-01 -1.315437912940979004e+00 -8.529009819030761719e-01 -1.833019256591796875e-01 -1.028996467590332031e+00 -6.290762424468994141e-01 -1.000059247016906738e+00 -9.861411154270172119e-02 -2.661831080913543701e-01 3.648426532745361328e-01 -1.813703775405883789e-01 -2.333397150039672852e+00 -2.482260227203369141e+00 1.301749706268310547e+00 1.506526708602905273e+00 7.296033948659896851e-02 -1.651345014572143555e+00 2.453408479690551758e+00 1.019956946372985840e+00 -1.000050067901611328e+00 -1.205563306808471680e+00 1.097159385681152344e+00 -4.338591694831848145e-01 -5.111199021339416504e-01 -4.205237030982971191e-01 5.351756215095520020e-01 1.397208452224731445e+00 1.663495779037475586e+00 -1.849900364875793457e+00 -5.653773546218872070e-01 -2.751178264617919922e+00 -4.541274905204772949e-02 1.044070959091186523e+00 6.032205000519752502e-02 3.433299362659454346e-01 1.158266142010688782e-01 -1.341173171997070312e+00 -1.692089319229125977e+00 -1.000005602836608887e+00 -3.941597938537597656e-01 1.083794832229614258e+00 3.178156316280364990e-01 -4.481706321239471436e-01 -4.722163081169128418e-01 -8.452297449111938477e-01 -1.122828841209411621e+00 8.275349140167236328e-01 -3.015289306640625000e+00 9.422614425420761108e-02 -7.517792582511901855e-01 1.233946323394775391e+00 -1.101434350013732910e+00 -2.989926040172576904e-01 -7.224451303482055664e-01
-8.891469836235046387e-01 -9.612344503402709961e-01 6.679331660270690918e-01 -1.590100646018981934e+00 -9.716393351554870605e-01 -2.260403156280517578e+00 -9.814083576202392578e-01 -4.424284994602203369e-01 -1.475038409233093262e+00 2.982349693775177002e-01 -4.311837255954742432e-01 -1.327697396278381348e+00 -8.543257117271423340e-01 -1.742528229951858521e-01 -1.045112729072570801e+00 -6.436556577682495117e-01 -1.000072121620178223e+00 -9.651486575603485107e-02 -2.735889554023742676e-01 3.564853072166442871e-01 -1.857528984546661377e-01 -2.343374490737915039e+00 -2.505610704421997070e+00 1.309792160987854004e+00 1.517874836921691895e+00 7.811218500137329102e-02 -1.659125208854675293e+00 2.472413301467895508e+00 1.026688933372497559e+00 -1.000012874603271484e+00 -1.214318394660949707e+00 1.107683062553405762e+00 -4.437832534313201904e-01 -5.167628526687622070e-01 -4.247071444988250732e-01 5.423331856727600098e-01 1.412097692489624023e+00 1.672356247901916504e+00 -1.860998511314392090e+00 -5.581484436988830566e-01 -2.765280723571777344e+00 -6.038668751716613770e-02 1.064284801483154297e+00 6.890497356653213501e-02 3.439471423625946045e-01 1.150678098201751709e-01 -1.347822308540344238e+00 -1.705608487129211426e+00 -1.000008344650268555e+00 -3.902374207973480225e-01 1.083992600440979004e+00 3.265804350376129150e-01 -4.557114541530609131e-01 -4.726835787296295166e-01 -8.654780387878417969e-01 -1.132604241371154785e+00 8.372876048088073730e-01 -3.030437469482421875e+00 1.098589599132537842e-01 -7.731517553329467773e-01 1.238303184509277344e+00 -1.116309523582458496e+00 -3.015380799770355225e-01 -7.294203639030456543e-01
-8.905426859855651855e-01 -9.622684121131896973e-01 6.703099012374877930e-01 -1.591789603233337402e+00 -9.741421937942504883e-01 -2.265054225921630859e+00 -9.813899397850036621e-01 -4.426502883434295654e-01 -1.476570844650268555e+00 2.985116541385650635e-01 -4.318231046199798584e-01 -1.329916357994079590e+00 -8.545835614204406738e-01 -1.726149916648864746e-01 -1.048029661178588867e+00 -6.462944746017456055e-01 -1.000074386596679688e+00 -9.613491594791412354e-02 -2.749293744564056396e-01 3.549726903438568115e-01 -1.865461021661758423e-01 -2.345180273056030273e+00 -2.509837150573730469e+00 1.311247825622558594e+00 1.519928693771362305e+00 7.904463261365890503e-02 -1.660533308982849121e+00 2.475852966308593750e+00 1.027907371520996094e+00 -1.000006079673767090e+00 -1.215902924537658691e+00 1.109587788581848145e+00 -4.455794692039489746e-01 -5.177841782569885254e-01 -4.254643023014068604e-01 5.436286926269531250e-01 1.414792537689208984e+00 1.673959970474243164e+00 -1.863007307052612305e+00 -5.568400621414184570e-01 -2.767833232879638672e+00 -6.309688091278076172e-02 1.067943334579467773e+00 7.045842707157135010e-02 3.440588414669036865e-01 1.149304732680320740e-01 -1.349025726318359375e+00 -1.708055377006530762e+00 -1.000008821487426758e+00 -3.895274698734283447e-01 1.084028363227844238e+00 3.281668126583099365e-01 -4.570763111114501953e-01 -4.727681577205657959e-01 -8.691428899765014648e-01 -1.134373545646667480e+00 8.390527963638305664e-01 -3.033179283142089844e+00 1.126884073019027710e-01 -7.770200371742248535e-01 1.239091753959655762e+00 -1.119001865386962891e+00 -3.019988238811492920e-01 -7.306827902793884277e-01
-8.839223980903625488e-01 -9.573643207550048828e-01 6.590366959571838379e-01 -1.583778619766235352e+00 -9.622709751129150391e-01 -2.242993593215942383e+00 -9.814773797988891602e-01 -4.415983855724334717e-01 -1.469302058219909668e+00 2.971993386745452881e-01 -4.287904202938079834e-01 -1.319391846656799316e+00 -8.533604741096496582e-01 -1.803834587335586548e-01 -1.034194231033325195e+00 -6.337782740592956543e-01 -1.000063419342041016e+00 -9.793707728385925293e-02 -2.685715854167938232e-01 3.621473014354705811e-01 -1.827837973833084106e-01 -2.336614847183227539e+00 -2.489790916442871094e+00 1.304343461990356445e+00 1.510186672210693359e+00 7.462187856435775757e-02 -1.653854250907897949e+00 2.459537744522094727e+00 1.022128105163574219e+00 -1.000038027763366699e+00 -1.208386898040771484e+00 1.100553393363952637e+00 -4.370598196983337402e-01 -5.129398107528686523e-01 -4.218729138374328613e-01 5.374840497970581055e-01 1.402010440826416016e+00 1.666353464126586914e+00 -1.853479743003845215e+00 -5.630459189414978027e-01 -2.755726575851440430e+00 -5.024204775691032410e-02 1.050590157508850098e+00 6.309016048908233643e-02 3.435289859771728516e-01 1.155818924307823181e-01 -1.343317627906799316e+00 -1.696449398994445801e+00 -1.000006556510925293e+00 -3.928947746753692627e-01 1.083858609199523926e+00 3.206424117088317871e-01 -4.506026506423950195e-01 -4.723670184612274170e-01 -8.517600893974304199e-01 -1.125981569290161133e+00 8.306803107261657715e-01 -3.020174741744995117e+00 9.926794469356536865e-02 -7.586721777915954590e-01 1.235351443290710449e+00 -1.106231808662414551e+00 -2.998135685920715332e-01 -7.246947288513183594e-01
-8.910663723945617676e-01 -9.626562595367431641e-01 6.712015867233276367e-01 -1.592423200607299805e+00 -9.750811457633972168e-01 -2.266798973083496094e+00 -9.813830256462097168e-01 -4.427334666252136230e-01 -1.477145791053771973e+00 2.986154556274414062e-01 -4.320629835128784180e-01 -1.330748796463012695e+00 -8.546802997589111328e-01 -1.720005422830581665e-01 -1.049123883247375488e+00 -6.472844481468200684e-01 -1.000075221061706543e+00 -9.599237143993377686e-02 -2.754322588443756104e-01 3.544051945209503174e-01 -1.868436932563781738e-01 -2.345857620239257812e+00 -2.511422634124755859e+00 1.311793923377990723e+00 1.520699262619018555e+00 7.939445227384567261e-02 -1.661061644554138184e+00 2.477143526077270508e+00 1.028364419937133789e+00 -1.000003576278686523e+00 -1.216497421264648438e+00 1.110302329063415527e+00 -4.462533295154571533e-01 -5.181673765182495117e-01 -4.257483780384063721e-01 5.441147089004516602e-01 1.415803551673889160e+00 1.674561619758605957e+00 -1.863760828971862793e+00 -5.563492178916931152e-01 -2.768790721893310547e+00 -6.411364674568176270e-02 1.069315910339355469e+00 7.104122638702392578e-02 3.441007435321807861e-01 1.148789525032043457e-01 -1.349477171897888184e+00 -1.708973407745361328e+00 -1.000009059906005859e+00 -3.892611265182495117e-01 1.084041833877563477e+00 3.287619352340698242e-01 -4.575883448123931885e-01 -4.727998971939086914e-01 -8.705177903175354004e-01 -1.135037302970886230e+00 8.397150039672851562e-01 -3.034207820892333984e+00 1.137499064207077026e-01 -7.784712910652160645e-01 1.239387631416320801e+00 -1.120011925697326660e+00 -3.021716475486755371e-01 -7.311564683914184570e-01
-8.939561843872070312e-01 -9.647969603538513184e-01 6.761224269866943359e-01 -1.595920085906982422e+00 -9.802630543708801270e-01 -2.276428699493408203e+00 -9.813448786735534668e-01 -4.431926310062408447e-01 -1.480318665504455566e+00 2.991882860660552979e-01 -4.333867728710174561e-01 -1.335342884063720703e+00 -8.552141785621643066e-01 -1.686095148324966431e-01 -1.055163264274597168e+00 -6.527478694915771484e-01 -1.000080108642578125e+00 -9.520570933818817139e-02 -2.782075107097625732e-01 3.512734174728393555e-01 -1.884859800338745117e-01 -2.349596500396728516e+00 -2.520173072814941406e+00 1.314807772636413574e+00 1.524951815605163574e+00 8.132503926753997803e-02 -1.663977146148681641e+00 2.484265327453613281e+00 1.030887126922607422e+00 -9.999896287918090820e-01 -1.219778299331665039e+00 1.114245891571044922e+00 -4.499722421169281006e-01 -5.202819705009460449e-01 -4.273160696029663086e-01 5.467969179153442383e-01 1.421383023262023926e+00 1.677881956100463867e+00 -1.867919683456420898e+00 -5.536402463912963867e-01 -2.774075508117675781e+00 -6.972493231296539307e-02 1.076890826225280762e+00 7.425756007432937622e-02 3.443320393562316895e-01 1.145946010947227478e-01 -1.351968884468078613e+00 -1.714039564132690430e+00 -1.000010013580322266e+00 -3.877912759780883789e-01 1.084115862846374512e+00 3.320464491844177246e-01 -4.604141712188720703e-01 -4.729749858379364014e-01 -8.781055808067321777e-01 -1.138700485229492188e+00 8.433697223663330078e-01 -3.039884567260742188e+00 1.196080967783927917e-01 -7.864803671836853027e-01 1.241020321846008301e+00 -1.125586271286010742e+00 -3.031255602836608887e-01 -7.337703108787536621e-01
-8.898505568504333496e-01 -9.617556929588317871e-01 6.691312789916992188e-01 -1.590952038764953613e+00 -9.729010462760925293e-01 -2.262747764587402344e+00 -9.813990592956542969e-01 -4.425402879714965820e-01 -1.475810885429382324e+00 2.983744442462921143e-01 -4.315060377120971680e-01 -1.328816056251525879e+00 -8.544557094573974609e-01 -1.734271943569183350e-01 -1.046583175659179688e+00 -6.449859142303466797e-01 -1.000073194503784180e+00 -9.632333368062973022e-02 -2.742646634578704834e-01 3.557227849960327148e-01 -1.861527562141418457e-01 -2.344284772872924805e+00 -2.507741212844848633e+00 1.310526013374328613e+00 1.518910169601440430e+00 7.858223468065261841e-02 -1.659835100173950195e+00 2.474147319793701172e+00 1.027303099632263184e+00 -1.000009417533874512e+00 -1.215117216110229492e+00 1.108643174171447754e+00 -4.446887373924255371e-01 -5.172777175903320312e-01 -4.250888228416442871e-01 5.429862737655639648e-01 1.413456201553344727e+00 1.673164725303649902e+00 -1.862011194229125977e+00 -5.574888586997985840e-01 -2.766567468643188477e+00 -6.175290420651435852e-02 1.066129088401794434e+00 6.968807429075241089e-02 3.440034389495849609e-01 1.149985790252685547e-01 -1.348428964614868164e+00 -1.706841945648193359e+00 -1.000008583068847656e+00 -3.898795247077941895e-01 1.084010601043701172e+00 3.273801207542419434e-01 -4.563994705677032471e-01 -4.727262258529663086e-01 -8.673254847526550293e-01 -1.133496165275573730e+00 8.381774425506591797e-01 -3.031819581985473633e+00 1.112852916121482849e-01 -7.751017808914184570e-01 1.238700747489929199e+00 -1.117666721343994141e+00 -3.017703592777252197e-01 -7.300567626953125000e-01
-8.952799439430236816e-01 -9.657775759696960449e-01 6.783766150474548340e-01 -1.597522020339965820e+00 -9.826368093490600586e-01 -2.280839920043945312e+00 -9.813273549079895020e-01 -4.434029757976531982e-01 -1.481772184371948242e+00 2.994506955146789551e-01 -4.339931905269622803e-01 -1.337447404861450195e+00 -8.554587364196777344e-01 -1.670561432838439941e-01 -1.057929754257202148e+00 -6.552506089210510254e-01 -1.000082254409790039e+00 -9.484535455703735352e-02 -2.794787883758544922e-01 3.498387634754180908e-01 -1.892382949590682983e-01 -2.351309299468994141e+00 -2.524181365966796875e+00 1.316188454627990723e+00 1.526899814605712891e+00 8.220940828323364258e-02 -1.665312767028808594e+00 2.487527608871459961e+00 1.032042741775512695e+00 -9.999832510948181152e-01 -1.221281170845031738e+00 1.116052508354187012e+00 -4.516758322715759277e-01 -5.212506651878356934e-01 -4.280341863632202148e-01 5.480256080627441406e-01 1.423938989639282227e+00 1.679402947425842285e+00 -1.869824886322021484e+00 -5.523993372917175293e-01 -2.776496410369873047e+00 -7.229536771774291992e-02 1.080360770225524902e+00 7.573091238737106323e-02 3.444379866123199463e-01 1.144643425941467285e-01 -1.353110194206237793e+00 -1.716360330581665039e+00 -1.000010490417480469e+00 -3.871179521083831787e-01 1.084149837493896484e+00 3.335510194301605225e-01 -4.617086350917816162e-01 -4.730552136898040771e-01 -8.815814256668090820e-01 -1.140378475189208984e+00 8.450438976287841797e-01 -3.042484998703002930e+00 1.222916394472122192e-01 -7.901491522789001465e-01 1.241768240928649902e+00 -1.128139734268188477e+00 -3.035625219345092773e-01 -7.349677085876464844e-01
-8.871582746505737305e-01 -9.597613215446472168e-01 6.645467877388000488e-01 -1.587694168090820312e+00 -9.680733084678649902e-01 -2.253776311874389648e+00 -9.814346432685852051e-01 -4.421125352382659912e-01 -1.472854852676391602e+00 2.978407740592956543e-01 -4.302727282047271729e-01 -1.324535965919494629e+00 -8.539583086967468262e-01 -1.765864193439483643e-01 -1.040956616401672363e+00 -6.398959159851074219e-01 -1.000068783760070801e+00 -9.705622494220733643e-02 -2.716791331768035889e-01 3.586405217647552490e-01 -1.846227347850799561e-01 -2.340801477432250977e+00 -2.499588966369628906e+00 1.307718157768249512e+00 1.514948368072509766e+00 7.678361982107162476e-02 -1.657118797302246094e+00 2.467512369155883789e+00 1.024952888488769531e+00 -1.000022411346435547e+00 -1.212060570716857910e+00 1.104969143867492676e+00 -4.412240386009216309e-01 -5.153076648712158203e-01 -4.236283004283905029e-01 5.404874086380004883e-01 1.408258080482482910e+00 1.670071363449096680e+00 -1.858136534690856934e+00 -5.600126385688781738e-01 -2.761643886566162109e+00 -5.652518942952156067e-02 1.059072017669677734e+00 6.669159978628158569e-02 3.437879681587219238e-01 1.152634918689727783e-01 -1.346107602119445801e+00 -1.702122211456298828e+00 -1.000007629394531250e+00 -3.912489116191864014e-01 1.083941578865051270e+00 3.243201375007629395e-01 -4.537668228149414062e-01 -4.725630879402160645e-01 -8.602563738822937012e-01 -1.130083322525024414e+00 8.347725868225097656e-01 -3.026531219482421875e+00 1.058275476098060608e-01 -7.676401734352111816e-01 1.237179636955261230e+00 -1.112473487854003906e+00 -3.008816540241241455e-01 -7.276215553283691406e-01
-8.726665973663330078e-01 -9.490263462066650391e-01 6.398699879646301270e-01 -1.570158362388610840e+00 -9.420875310897827148e-01 -2.205486059188842773e+00 -9.816260337829589844e-01 -4.398099482059478760e-01 -1.456943631172180176e+00 2.949681580066680908e-01 -4.236342608928680420e-01 -1.301497936248779297e+00 -8.512809872627258301e-01 -1.935914456844329834e-01 -1.010671138763427734e+00 -6.124982833862304688e-01 -1.000044703483581543e+00 -1.010011062026023865e-01 -2.577620744705200195e-01 3.743456006050109863e-01 -1.763871014118194580e-01 -2.322052001953125000e+00 -2.455708503723144531e+00 1.292604684829711914e+00 1.493623018264770508e+00 6.710229068994522095e-02 -1.642498254776000977e+00 2.431798458099365234e+00 1.012302279472351074e+00 -1.000092506408691406e+00 -1.195608019828796387e+00 1.085193157196044922e+00 -4.225747287273406982e-01 -5.047034025192260742e-01 -4.157668054103851318e-01 5.270369052886962891e-01 1.380278348922729492e+00 1.653420805931091309e+00 -1.837280869483947754e+00 -5.735971927642822266e-01 -2.735142469406127930e+00 -2.838621661067008972e-02 1.021086215972900391e+00 5.056260153651237488e-02 3.426281511783599854e-01 1.166894286870956421e-01 -1.333612680435180664e+00 -1.676716804504394531e+00 -1.000002503395080566e+00 -3.986198604106903076e-01 1.083570003509521484e+00 3.078494071960449219e-01 -4.395961463451385498e-01 -4.716849923133850098e-01 -8.222058415412902832e-01 -1.111713528633117676e+00 8.164453506469726562e-01 -2.998064517974853516e+00 7.645042985677719116e-02 -7.274770736694335938e-01 1.228992223739624023e+00 -1.084519982337951660e+00 -2.960981726646423340e-01 -7.145137190818786621e-01
-8.786293268203735352e-01 -9.534433484077453613e-01 6.500234603881835938e-01 -1.577373623847961426e+00 -9.527796506881713867e-01 -2.225355625152587891e+00 -9.815472364425659180e-01 -4.407573640346527100e-01 -1.463490486145019531e+00 2.961501181125640869e-01 -4.263657331466674805e-01 -1.310977101325988770e+00 -8.523826003074645996e-01 -1.865945756435394287e-01 -1.023132443428039551e+00 -6.237713098526000977e-01 -1.000054597854614258e+00 -9.937795251607894897e-02 -2.634883821010589600e-01 3.678835928440093994e-01 -1.797757297754287720e-01 -2.329766750335693359e+00 -2.473763704299926758e+00 1.298823237419128418e+00 1.502397537231445312e+00 7.108575850725173950e-02 -1.648514032363891602e+00 2.446493387222290039e+00 1.017507433891296387e+00 -1.000063657760620117e+00 -1.202377557754516602e+00 1.093330144882202148e+00 -4.302481412887573242e-01 -5.090666413307189941e-01 -4.190014898777008057e-01 5.325711965560913086e-01 1.391790866851806641e+00 1.660271763801574707e+00 -1.845862150192260742e+00 -5.680077075958251953e-01 -2.746046781539916992e+00 -3.996424749493598938e-02 1.036715745925903320e+00 5.719901993870735168e-02 3.431053757667541504e-01 1.161027178168296814e-01 -1.338753819465637207e+00 -1.687170028686523438e+00 -1.000004649162292480e+00 -3.955870270729064941e-01 1.083722829818725586e+00 3.146264255046844482e-01 -4.454267919063568115e-01 -4.720462858676910400e-01 -8.378620743751525879e-01 -1.119271874427795410e+00 8.239862322807312012e-01 -3.009777307510375977e+00 8.853790909051895142e-02 -7.440025806427001953e-01 1.232361078262329102e+00 -1.096021771430969238e+00 -2.980663776397705078e-01 -7.199070453643798828e-01
-8.848090767860412598e-01 -9.580211043357849121e-01 6.605464816093444824e-01 -1.584851503372192383e+00 -9.638608694076538086e-01 -2.245948076248168945e+00 -9.814656376838684082e-01 -4.417392611503601074e-01 -1.470275521278381348e+00 2.973750829696655273e-01 -4.291965961456298828e-01 -1.320801258087158203e+00 -8.535242676734924316e-01 -1.793430596590042114e-01 -1.036047101020812988e+00 -6.354545354843139648e-01 -1.000064849853515625e+00 -9.769571572542190552e-02 -2.694230675697326660e-01 3.611864149570465088e-01 -1.832876801490783691e-01 -2.337762117385864258e+00 -2.492475748062133789e+00 1.305268168449401855e+00 1.511491417884826660e+00 7.521420717239379883e-02 -1.654748678207397461e+00 2.461722850799560547e+00 1.022902131080627441e+00 -1.000033855438232422e+00 -1.209393501281738281e+00 1.101763367652893066e+00 -4.382008314132690430e-01 -5.135886073112487793e-01 -4.223538935184478760e-01 5.383069515228271484e-01 1.403722286224365234e+00 1.667372107505798340e+00 -1.854755640029907227e+00 -5.622147917747497559e-01 -2.757347822189331055e+00 -5.196365714073181152e-02 1.052914261817932129e+00 6.407696753740310669e-02 3.435999453067779541e-01 1.154946461319923401e-01 -1.344082117080688477e+00 -1.698003768920898438e+00 -1.000006794929504395e+00 -3.924438059329986572e-01 1.083881378173828125e+00 3.216501176357269287e-01 -4.514696598052978516e-01 -4.724207520484924316e-01 -8.540881276130676270e-01 -1.127105474472045898e+00 8.318015933036804199e-01 -3.021916389465332031e+00 1.010653078556060791e-01 -7.611294388771057129e-01 1.235852360725402832e+00 -1.107942104339599609e+00 -3.001062273979187012e-01 -7.254966497421264648e-01
-8.640494346618652344e-01 -9.426430463790893555e-01 6.251964569091796875e-01 -1.559731125831604004e+00 -9.266356229782104492e-01 -2.176771402359008789e+00 -9.817398190498352051e-01 -4.384407699108123779e-01 -1.447482347488403320e+00 2.932600080966949463e-01 -4.196868240833282471e-01 -1.287798762321472168e+00 -8.496889472007751465e-01 -2.037031203508377075e-01 -9.926625490188598633e-01 -5.962069034576416016e-01 -1.000030279159545898e+00 -1.033468544483184814e-01 -2.494865953922271729e-01 3.836842775344848633e-01 -1.714899688959121704e-01 -2.310903072357177734e+00 -2.429615974426269531e+00 1.283617734909057617e+00 1.480942487716674805e+00 6.134549900889396667e-02 -1.633804440498352051e+00 2.410562038421630859e+00 1.004779815673828125e+00 -1.000134110450744629e+00 -1.185824871063232422e+00 1.073433756828308105e+00 -4.114853143692016602e-01 -4.983978569507598877e-01 -4.110921621322631836e-01 5.190387964248657227e-01 1.363640785217285156e+00 1.643519878387451172e+00 -1.824879527091979980e+00 -5.816749334335327148e-01 -2.719384193420410156e+00 -1.165397837758064270e-02 9.984987378120422363e-01 4.097184166312217712e-02 3.419384956359863281e-01 1.175373345613479614e-01 -1.326182842254638672e+00 -1.661610126495361328e+00 -9.999994635581970215e-01 -4.030028581619262695e-01 1.083349108695983887e+00 2.980554103851318359e-01 -4.311698377132415771e-01 -4.711628556251525879e-01 -7.995798587799072266e-01 -1.100790262222290039e+00 8.055474758148193359e-01 -2.981137514114379883e+00 5.898194760084152222e-02 -7.035949230194091797e-01 1.224123835563659668e+00 -1.067898035049438477e+00 -2.932537794113159180e-01 -7.067193984985351562e-01
-8.856741786003112793e-01 -9.586619138717651367e-01 6.620196104049682617e-01 -1.585898399353027344e+00 -9.654120802879333496e-01 -2.248830795288085938e+00 -9.814542531967163086e-01 -4.418767094612121582e-01 -1.471225380897521973e+00 2.975465655326843262e-01 -4.295928776264190674e-01 -1.322176575660705566e+00 -8.536841273307800293e-01 -1.783279329538345337e-01 -1.037855029106140137e+00 -6.370900869369506836e-01 -1.000066280364990234e+00 -9.746022522449493408e-02 -2.702538669109344482e-01 3.602488934993743896e-01 -1.837792992591857910e-01 -2.338881254196166992e+00 -2.495095252990722656e+00 1.306170344352722168e+00 1.512764453887939453e+00 7.579214125871658325e-02 -1.655621528625488281e+00 2.463854789733886719e+00 1.023657321929931641e+00 -1.000029563903808594e+00 -1.210375666618347168e+00 1.102943897247314453e+00 -4.393141269683837891e-01 -5.142216682434082031e-01 -4.228231906890869141e-01 5.391098856925964355e-01 1.405392527580261230e+00 1.668366193771362305e+00 -1.856000661849975586e+00 -5.614038705825805664e-01 -2.758929967880249023e+00 -5.364343151450157166e-02 1.055181860923767090e+00 6.503979861736297607e-02 3.436692059040069580e-01 1.154095232486724854e-01 -1.344828009605407715e+00 -1.699520349502563477e+00 -1.000007152557373047e+00 -3.920038044452667236e-01 1.083903551101684570e+00 3.226333558559417725e-01 -4.523155689239501953e-01 -4.724731743335723877e-01 -8.563596010208129883e-01 -1.128202080726623535e+00 8.328956365585327148e-01 -3.023615837097167969e+00 1.028189957141876221e-01 -7.635270357131958008e-01 1.236341118812561035e+00 -1.109610795974731445e+00 -3.003917634487152100e-01 -7.262791395187377930e-01
-8.679779767990112305e-01 -9.455531835556030273e-01 6.318861246109008789e-01 -1.564484953880310059e+00 -9.336801767349243164e-01 -2.189862489700317383e+00 -9.816879034042358398e-01 -4.390649795532226562e-01 -1.451795816421508789e+00 2.940387427806854248e-01 -4.214864671230316162e-01 -1.294044256210327148e+00 -8.504147529602050781e-01 -1.990931928157806396e-01 -1.000872731208801270e+00 -6.036341786384582520e-01 -1.000036835670471191e+00 -1.022774279117584229e-01 -2.532593905925750732e-01 3.794267475605010986e-01 -1.737225800752639771e-01 -2.315985918045043945e+00 -2.441511631011962891e+00 1.287714838981628418e+00 1.486723542213439941e+00 6.397002190351486206e-02 -1.637768030166625977e+00 2.420243740081787109e+00 1.008209347724914551e+00 -1.000115036964416504e+00 -1.190285086631774902e+00 1.078794836997985840e+00 -4.165409803390502930e-01 -5.012725591659545898e-01 -4.132233262062072754e-01 5.226851701736450195e-01 1.371225833892822266e+00 1.648033738136291504e+00 -1.830533266067504883e+00 -5.779922604560852051e-01 -2.726568460464477539e+00 -1.928222179412841797e-02 1.008796334266662598e+00 4.534427821636199951e-02 3.422529101371765137e-01 1.171507760882377625e-01 -1.329570174217224121e+00 -1.668497323989868164e+00 -1.000000834465026855e+00 -4.010046422481536865e-01 1.083449840545654297e+00 3.025204837322235107e-01 -4.350113868713378906e-01 -4.714009165763854980e-01 -8.098950386047363281e-01 -1.105770111083984375e+00 8.105158209800720215e-01 -2.988854646682739258e+00 6.694584339857101440e-02 -7.144828438758850098e-01 1.226343393325805664e+00 -1.075475931167602539e+00 -2.945505380630493164e-01 -7.102728486061096191e-01
-8.909313082695007324e-01 -9.625562429428100586e-01 6.709716916084289551e-01 -1.592259883880615234e+00 -9.748390316963195801e-01 -2.266349077224731445e+00 -9.813848137855529785e-01 -4.427120089530944824e-01 -1.476997494697570801e+00 2.985886931419372559e-01 -4.320011436939239502e-01 -1.330534100532531738e+00 -8.546553850173950195e-01 -1.721589714288711548e-01 -1.048841834068298340e+00 -6.470291614532470703e-01 -1.000075101852416992e+00 -9.602912515401840210e-02 -2.753025889396667480e-01 3.545515239238739014e-01 -1.867669671773910522e-01 -2.345683097839355469e+00 -2.511013746261596680e+00 1.311653137207031250e+00 1.520500659942626953e+00 7.930426299571990967e-02 -1.660925388336181641e+00 2.476810693740844727e+00 1.028246521949768066e+00 -1.000004172325134277e+00 -1.216344118118286133e+00 1.110118150711059570e+00 -4.460795819759368896e-01 -5.180685520172119141e-01 -4.256751239299774170e-01 5.439893603324890137e-01 1.415542840957641602e+00 1.674406528472900391e+00 -1.863566517829895020e+00 -5.564757585525512695e-01 -2.768543958663940430e+00 -6.385148316621780396e-02 1.068962097167968750e+00 7.089096307754516602e-02 3.440899550914764404e-01 1.148922368884086609e-01 -1.349360823631286621e+00 -1.708736658096313477e+00 -1.000008940696716309e+00 -3.893298208713531494e-01 1.084038376808166504e+00 3.286084830760955811e-01 -4.574563205242156982e-01 -4.727917015552520752e-01 -8.701632618904113770e-01 -1.134866118431091309e+00 8.395442962646484375e-01 -3.033942699432373047e+00 1.134762167930603027e-01 -7.780970931053161621e-01 1.239311337471008301e+00 -1.119751572608947754e+00 -3.021270930767059326e-01 -7.310343384742736816e-01
-8.870832920074462891e-01 -9.597057700157165527e-01 6.644191145896911621e-01 -1.587603449821472168e+00 -9.679388999938964844e-01 -2.253526449203491211e+00 -9.814355969429016113e-01 -4.421006143093109131e-01 -1.472772598266601562e+00 2.978259027004241943e-01 -4.302383959293365479e-01 -1.324416756629943848e+00 -8.539444208145141602e-01 -1.766743808984756470e-01 -1.040799975395202637e+00 -6.397541761398315430e-01 -1.000068664550781250e+00 -9.707663208246231079e-02 -2.716071307659149170e-01 3.587217628955841064e-01 -1.845801174640655518e-01 -2.340704441070556641e+00 -2.499361991882324219e+00 1.307639956474304199e+00 1.514837980270385742e+00 7.673353701829910278e-02 -1.657043218612670898e+00 2.467327594757080078e+00 1.024887442588806152e+00 -1.000022768974304199e+00 -1.211975455284118652e+00 1.104866862297058105e+00 -4.411275684833526611e-01 -5.152527689933776855e-01 -4.235876500606536865e-01 5.404177904129028320e-01 1.408113241195678711e+00 1.669985175132751465e+00 -1.858028650283813477e+00 -5.600829124450683594e-01 -2.761506795883178711e+00 -5.637962743639945984e-02 1.058875560760498047e+00 6.660816073417663574e-02 3.437819778919219971e-01 1.152708679437637329e-01 -1.346042990684509277e+00 -1.701990723609924316e+00 -1.000007629394531250e+00 -3.912870585918426514e-01 1.083939671516418457e+00 3.242349624633789062e-01 -4.536935091018676758e-01 -4.725585579872131348e-01 -8.600595593452453613e-01 -1.129988312721252441e+00 8.346777558326721191e-01 -3.026383876800537109e+00 1.056755855679512024e-01 -7.674324512481689453e-01 1.237137317657470703e+00 -1.112328886985778809e+00 -3.008569180965423584e-01 -7.275537252426147461e-01
-8.956546187400817871e-01 -9.660550951957702637e-01 6.790145635604858398e-01 -1.597975254058837891e+00 -9.833085536956787109e-01 -2.282088279724121094e+00 -9.813224077224731445e-01 -4.434624910354614258e-01 -1.482183456420898438e+00 2.995249629020690918e-01 -4.341647922992706299e-01 -1.338042974472045898e+00 -8.555279970169067383e-01 -1.666165441274642944e-01 -1.058712720870971680e+00 -6.559588313102722168e-01 -1.000082850456237793e+00 -9.474337846040725708e-02 -2.798385620117187500e-01 3.494327962398529053e-01 -1.894511878490447998e-01 -2.351794004440307617e+00 -2.525315761566162109e+00 1.316579103469848633e+00 1.527451157569885254e+00 8.245968073606491089e-02 -1.665690660476684570e+00 2.488451004028320312e+00 1.032369732856750488e+00 -9.999814033508300781e-01 -1.221706509590148926e+00 1.116563677787780762e+00 -4.521579444408416748e-01 -5.215247869491577148e-01 -4.282374083995819092e-01 5.483732819557189941e-01 1.424662232398986816e+00 1.679833412170410156e+00 -1.870363950729370117e+00 -5.520482063293457031e-01 -2.777181386947631836e+00 -7.302278280258178711e-02 1.081342697143554688e+00 7.614786177873611450e-02 3.444679677486419678e-01 1.144274771213531494e-01 -1.353433251380920410e+00 -1.717017054557800293e+00 -1.000010609626770020e+00 -3.869273960590362549e-01 1.084159374237060547e+00 3.339767754077911377e-01 -4.620749354362487793e-01 -4.730778932571411133e-01 -8.825650811195373535e-01 -1.140853404998779297e+00 8.455176353454589844e-01 -3.043220758438110352e+00 1.230510622262954712e-01 -7.911874055862426758e-01 1.241979837417602539e+00 -1.128862380981445312e+00 -3.036861717700958252e-01 -7.353065609931945801e-01
-8.821112513542175293e-01 -9.560226798057556152e-01 6.559526324272155762e-01 -1.581587076187133789e+00 -9.590232968330383301e-01 -2.236958265304565430e+00 -9.815012812614440918e-01 -4.413106143474578857e-01 -1.467313528060913086e+00 2.968403398990631104e-01 -4.279607534408569336e-01 -1.316512465476989746e+00 -8.530258536338806152e-01 -1.825087517499923706e-01 -1.030409097671508789e+00 -6.303541660308837891e-01 -1.000060319900512695e+00 -9.843010455369949341e-02 -2.668322622776031494e-01 3.641101121902465820e-01 -1.817545145750045776e-01 -2.334271669387817383e+00 -2.484306812286376953e+00 1.302454590797424316e+00 1.507521390914916992e+00 7.341191172599792480e-02 -1.652026891708374023e+00 2.455074310302734375e+00 1.020547032356262207e+00 -1.000046849250793457e+00 -1.206330657005310059e+00 1.098081827163696289e+00 -4.347290396690368652e-01 -5.116145014762878418e-01 -4.208903908729553223e-01 5.358030200004577637e-01 1.398513555526733398e+00 1.664272427558898926e+00 -1.850873112678527832e+00 -5.647436976432800293e-01 -2.752414226531982422e+00 -4.672525078058242798e-02 1.045842766761779785e+00 6.107436493039131165e-02 3.433840572834014893e-01 1.157601028680801392e-01 -1.341755986213684082e+00 -1.693274259567260742e+00 -1.000005841255187988e+00 -3.938159942626953125e-01 1.083812117576599121e+00 3.185839056968688965e-01 -4.488316178321838379e-01 -4.722572863101959229e-01 -8.470045328140258789e-01 -1.123685717582702637e+00 8.283897638320922852e-01 -3.016617059707641602e+00 9.559640288352966309e-02 -7.536526322364807129e-01 1.234328269958496094e+00 -1.102738142013549805e+00 -2.992157042026519775e-01 -7.230564951896667480e-01
-8.967583179473876953e-01 -9.668727517127990723e-01 6.808940172195434570e-01 -1.599310874938964844e+00 -9.852877259254455566e-01 -2.285766363143920898e+00 -9.813078641891479492e-01 -4.436378777027130127e-01 -1.483395338058471680e+00 2.997437417507171631e-01 -4.346704185009002686e-01 -1.339797616004943848e+00 -8.557319045066833496e-01 -1.653213649988174438e-01 -1.061019301414489746e+00 -6.580455899238586426e-01 -1.000084757804870605e+00 -9.444291889667510986e-02 -2.808985412120819092e-01 3.482366204261779785e-01 -1.900784522294998169e-01 -2.353222131729125977e+00 -2.528657913208007812e+00 1.317730188369750977e+00 1.529075384140014648e+00 8.319705724716186523e-02 -1.666804313659667969e+00 2.491171121597290039e+00 1.033333301544189453e+00 -9.999760985374450684e-01 -1.222959637641906738e+00 1.118069887161254883e+00 -4.535783529281616211e-01 -5.223324298858642578e-01 -4.288361668586730957e-01 5.493977665901184082e-01 1.426793336868286133e+00 1.681101560592651367e+00 -1.871952414512634277e+00 -5.510135293006896973e-01 -2.779199838638305664e+00 -7.516597211360931396e-02 1.084235906600952148e+00 7.737632095813751221e-02 3.445563018321990967e-01 1.143188700079917908e-01 -1.354384899139404297e+00 -1.718952059745788574e+00 -1.000011086463928223e+00 -3.863660097122192383e-01 1.084187746047973633e+00 3.352312743663787842e-01 -4.631542563438415527e-01 -4.731447994709014893e-01 -8.854631781578063965e-01 -1.142252564430236816e+00 8.469135165214538574e-01 -3.045388936996459961e+00 1.252885609865188599e-01 -7.942464351654052734e-01 1.242603421211242676e+00 -1.130991458892822266e+00 -3.040505051612854004e-01 -7.363048791885375977e-01
-8.950424790382385254e-01 -9.656016826629638672e-01 6.779721975326538086e-01 -1.597234606742858887e+00 -9.822109341621398926e-01 -2.280048608779907227e+00 -9.813305139541625977e-01 -4.433652460575103760e-01 -1.481511354446411133e+00 2.994036078453063965e-01 -4.338843822479248047e-01 -1.337069749832153320e+00 -8.554148674011230469e-01 -1.673348248004913330e-01 -1.057433485984802246e+00 -6.548015475273132324e-01 -1.000081896781921387e+00 -9.491000324487686157e-02 -2.792507112026214600e-01 3.500961661338806152e-01 -1.891033202409744263e-01 -2.351001977920532227e+00 -2.523462295532226562e+00 1.315940737724304199e+00 1.526550412178039551e+00 8.205074071884155273e-02 -1.665073156356811523e+00 2.486942291259765625e+00 1.031835436820983887e+00 -9.999843835830688477e-01 -1.221011519432067871e+00 1.115728378295898438e+00 -4.513701796531677246e-01 -5.210768580436706543e-01 -4.279053509235382080e-01 5.478051304817199707e-01 1.423480391502380371e+00 1.679130077362060547e+00 -1.869482994079589844e+00 -5.526219606399536133e-01 -2.776062011718750000e+00 -7.183419913053512573e-02 1.079738259315490723e+00 7.546658068895339966e-02 3.444189727306365967e-01 1.144877076148986816e-01 -1.352905511856079102e+00 -1.715943932533264160e+00 -1.000010490417480469e+00 -3.872387409210205078e-01 1.084143757820129395e+00 3.332810699939727783e-01 -4.614763855934143066e-01 -4.730408191680908203e-01 -8.809577822685241699e-01 -1.140077471733093262e+00 8.447434902191162109e-01 -3.042018413543701172e+00 1.218101829290390015e-01 -7.894909381866455078e-01 1.241634011268615723e+00 -1.127681612968444824e+00 -3.034841120243072510e-01 -7.347528934478759766e-01
-8.966929912567138672e-01 -9.668242931365966797e-01 6.807827353477478027e-01 -1.599231839179992676e+00 -9.851705431938171387e-01 -2.285548448562622070e+00 -9.813086986541748047e-01 -4.436274766921997070e-01 -1.483323574066162109e+00 2.997307777404785156e-01 -4.346404969692230225e-01 -1.339693665504455566e+00 -8.557198047637939453e-01 -1.653980463743209839e-01 -1.060882806777954102e+00 -6.579220294952392578e-01 -1.000084638595581055e+00 -9.446070343255996704e-02 -2.808357775211334229e-01 3.483074307441711426e-01 -1.900413185358047485e-01 -2.353137493133544922e+00 -2.528460025787353516e+00 1.317662119865417480e+00 1.528979182243347168e+00 8.315339684486389160e-02 -1.666738390922546387e+00 2.491009950637817383e+00 1.033276200294494629e+00 -9.999763965606689453e-01 -1.222885370254516602e+00 1.117980718612670898e+00 -4.534942507743835449e-01 -5.222846269607543945e-01 -4.288007318973541260e-01 5.493370890617370605e-01 1.426667094230651855e+00 1.681026458740234375e+00 -1.871858358383178711e+00 -5.510748028755187988e-01 -2.779080390930175781e+00 -7.503908127546310425e-02 1.084064602851867676e+00 7.730358839035034180e-02 3.445510566234588623e-01 1.143253073096275330e-01 -1.354328513145446777e+00 -1.718837499618530273e+00 -1.000010967254638672e+00 -3.863992393016815186e-01 1.084186077117919922e+00 3.351570069789886475e-01 -4.630903601646423340e-01 -4.731408357620239258e-01 -8.852915763854980469e-01 -1.142169713973999023e+00 8.468309044837951660e-01 -3.045260429382324219e+00 1.251560747623443604e-01 -7.940652966499328613e-01 1.242566466331481934e+00 -1.130865454673767090e+00 -3.040289282798767090e-01 -7.362458109855651855e-01
-8.958631157875061035e-01 -9.662095904350280762e-01 6.793696880340576172e-01 -1.598227620124816895e+00 -9.836825132369995117e-01 -2.282783269882202148e+00 -9.813196659088134766e-01 -4.434956312179565430e-01 -1.482412457466125488e+00 2.995662987232208252e-01 -4.342603385448455811e-01 -1.338374495506286621e+00 -8.555665016174316406e-01 -1.663718223571777344e-01 -1.059148550033569336e+00 -6.563531160354614258e-01 -1.000083208084106445e+00 -9.468660503625869751e-02 -2.800388336181640625e-01 3.492067754268646240e-01 -1.895697116851806641e-01 -2.352063894271850586e+00 -2.525947332382202148e+00 1.316796660423278809e+00 1.527758002281188965e+00 8.259900659322738647e-02 -1.665901064872741699e+00 2.488964796066284180e+00 1.032551765441894531e+00 -9.999803900718688965e-01 -1.221943259239196777e+00 1.116848230361938477e+00 -4.524263143539428711e-01 -5.216773748397827148e-01 -4.283505380153656006e-01 5.485668778419494629e-01 1.425064921379089355e+00 1.680073022842407227e+00 -1.870664119720458984e+00 -5.518527030944824219e-01 -2.777562856674194336e+00 -7.342773675918579102e-02 1.081889390945434570e+00 7.637997716665267944e-02 3.444846570491790771e-01 1.144069582223892212e-01 -1.353613018989562988e+00 -1.717382669448852539e+00 -1.000010728836059570e+00 -3.868213295936584473e-01 1.084164738655090332e+00 3.342138230800628662e-01 -4.622788727283477783e-01 -4.730905294418334961e-01 -8.831126689910888672e-01 -1.141117811203002930e+00 8.457813858985900879e-01 -3.043630361557006836e+00 1.234738305211067200e-01 -7.917653918266296387e-01 1.242097616195678711e+00 -1.129264712333679199e+00 -3.037550151348114014e-01 -7.354952096939086914e-01
-8.953856825828552246e-01 -9.658558964729309082e-01 6.785566210746765137e-01 -1.597649931907653809e+00 -9.828263521194458008e-01 -2.281192302703857422e+00 -9.813259840011596680e-01 -4.434197545051574707e-01 -1.481888175010681152e+00 2.994716465473175049e-01 -4.340416193008422852e-01 -1.337615489959716797e+00 -8.554782867431640625e-01 -1.669320762157440186e-01 -1.058150768280029297e+00 -6.554504632949829102e-01 -1.000082492828369141e+00 -9.481657296419143677e-02 -2.795803248882293701e-01 3.497242033481597900e-01 -1.892983764410018921e-01 -2.351446151733398438e+00 -2.524501562118530273e+00 1.316298723220825195e+00 1.527055501937866211e+00 8.228003978729248047e-02 -1.665419459342956543e+00 2.487788200378417969e+00 1.032135009765625000e+00 -9.999827146530151367e-01 -1.221401214599609375e+00 1.116196751594543457e+00 -4.518118798732757568e-01 -5.213280320167541504e-01 -4.280915260314941406e-01 5.481237173080444336e-01 1.424143075942993164e+00 1.679524421691894531e+00 -1.869976997375488281e+00 -5.523002743721008301e-01 -2.776689767837524414e+00 -7.250064611434936523e-02 1.080637931823730469e+00 7.584857940673828125e-02 3.444464504718780518e-01 1.144539415836334229e-01 -1.353201389312744141e+00 -1.716545581817626953e+00 -1.000010609626770020e+00 -3.870641887187957764e-01 1.084152579307556152e+00 3.336711525917053223e-01 -4.618119895458221436e-01 -4.730616211891174316e-01 -8.818590044975280762e-01 -1.140512585639953613e+00 8.451775908470153809e-01 -3.042692661285400391e+00 1.225059479475021362e-01 -7.904421687126159668e-01 1.241827964782714844e+00 -1.128343701362609863e+00 -3.035974204540252686e-01 -7.350633144378662109e-01
-8.926568627357482910e-01 -9.638344645500183105e-01 6.739099621772766113e-01 -1.594347834587097168e+00 -9.779331684112548828e-01 -2.272099018096923828e+00 -9.813619852066040039e-01 -4.429861903190612793e-01 -1.478892087936401367e+00 2.989307343959808350e-01 -4.327915906906127930e-01 -1.333277344703674316e+00 -8.549741506576538086e-01 -1.701341718435287476e-01 -1.052447915077209473e+00 -6.502914428710937500e-01 -1.000077962875366211e+00 -9.555941075086593628e-02 -2.769596874713897705e-01 3.526815176010131836e-01 -1.877475827932357788e-01 -2.347915410995483398e+00 -2.516238689422607422e+00 1.313452720642089844e+00 1.523039817810058594e+00 8.045701682567596436e-02 -1.662666320800781250e+00 2.481063127517700195e+00 1.029752850532531738e+00 -9.999958872795104980e-01 -1.218303203582763672e+00 1.112472891807556152e+00 -4.483001530170440674e-01 -5.193312168121337891e-01 -4.266111850738525391e-01 5.455909371376037598e-01 1.418874382972717285e+00 1.676389098167419434e+00 -1.866049766540527344e+00 -5.548582673072814941e-01 -2.771699428558349609e+00 -6.720200181007385254e-02 1.073485016822814941e+00 7.281143963336944580e-02 3.442280292510986328e-01 1.147224456071853638e-01 -1.350848555564880371e+00 -1.711761713027954102e+00 -1.000009655952453613e+00 -3.884521424770355225e-01 1.084082603454589844e+00 3.305696845054626465e-01 -4.591436088085174561e-01 -4.728962779045104980e-01 -8.746939897537231445e-01 -1.137053489685058594e+00 8.417264819145202637e-01 -3.037332296371459961e+00 1.169741526246070862e-01 -7.828793525695800781e-01 1.240286231040954590e+00 -1.123080015182495117e+00 -3.026966750621795654e-01 -7.325950860977172852e-01
-8.962944746017456055e-01 -9.665291309356689453e-01 6.801041364669799805e-01 -1.598749637603759766e+00 -9.844559431076049805e-01 -2.284220695495605469e+00 -9.813139438629150391e-01 -4.435641765594482422e-01 -1.482886075973510742e+00 2.996518015861511230e-01 -4.344579279422760010e-01 -1.339060187339782715e+00 -8.556461930274963379e-01 -1.658656746149063110e-01 -1.060050010681152344e+00 -6.571686267852783203e-01 -1.000083923339843750e+00 -9.456918388605117798e-02 -2.804530858993530273e-01 3.487393260002136230e-01 -1.898148357868194580e-01 -2.352621793746948242e+00 -2.527253389358520508e+00 1.317246437072753906e+00 1.528392791748046875e+00 8.288716524839401245e-02 -1.666336297988891602e+00 2.490027904510498047e+00 1.032928347587585449e+00 -9.999783039093017578e-01 -1.222432971000671387e+00 1.117436885833740234e+00 -4.529814124107360840e-01 -5.219930410385131836e-01 -4.285845458507537842e-01 5.489671826362609863e-01 1.425897717475891113e+00 1.680568575859069824e+00 -1.871284842491149902e+00 -5.514483451843261719e-01 -2.778351545333862305e+00 -7.426527887582778931e-02 1.083019971847534180e+00 7.686004787683486938e-02 3.445191681385040283e-01 1.143645197153091431e-01 -1.353984951972961426e+00 -1.718138813972473145e+00 -1.000010848045349121e+00 -3.866019248962402344e-01 1.084175825119018555e+00 3.347040712833404541e-01 -4.627006649971008301e-01 -4.731166660785675049e-01 -8.842452168464660645e-01 -1.141664505004882812e+00 8.463268876075744629e-01 -3.044477701187133789e+00 1.243482306599617004e-01 -7.929608821868896484e-01 1.242341399192810059e+00 -1.130096673965454102e+00 -3.038973808288574219e-01 -7.358853220939636230e-01
-8.961799144744873047e-01 -9.664442539215087891e-01 6.799090504646301270e-01 -1.598610997200012207e+00 -9.842504858970642090e-01 -2.283838748931884766e+00 -9.813154935836791992e-01 -4.435459673404693604e-01 -1.482760190963745117e+00 2.996290922164916992e-01 -4.344054460525512695e-01 -1.338878035545349121e+00 -8.556250333786010742e-01 -1.660001426935195923e-01 -1.059810519218444824e+00 -6.569519639015197754e-01 -1.000083804130554199e+00 -9.460037946701049805e-02 -2.803430259227752686e-01 3.488635122776031494e-01 -1.897497177124023438e-01 -2.352473735809326172e+00 -2.526906251907348633e+00 1.317126989364624023e+00 1.528224110603332520e+00 8.281061798334121704e-02 -1.666220664978027344e+00 2.489745616912841797e+00 1.032828330993652344e+00 -9.999788999557495117e-01 -1.222302913665771484e+00 1.117280483245849609e+00 -4.528339505195617676e-01 -5.219091773033142090e-01 -4.285223782062530518e-01 5.488608479499816895e-01 1.425676465034484863e+00 1.680436968803405762e+00 -1.871119976043701172e+00 -5.515557527542114258e-01 -2.778141975402832031e+00 -7.404278218746185303e-02 1.082719683647155762e+00 7.673251628875732422e-02 3.445099890232086182e-01 1.143757924437522888e-01 -1.353886127471923828e+00 -1.717937946319580078e+00 -1.000010848045349121e+00 -3.866602182388305664e-01 1.084172844886779785e+00 3.345738351345062256e-01 -4.625886082649230957e-01 -4.731097221374511719e-01 -8.839443325996398926e-01 -1.141519308090209961e+00 8.461819887161254883e-01 -3.044252634048461914e+00 1.241159364581108093e-01 -7.926433086395263672e-01 1.242276668548583984e+00 -1.129875659942626953e+00 -3.038595616817474365e-01 -7.357816696166992188e-01
-8.800303936004638672e-01 -9.544812440872192383e-01 6.524093151092529297e-01 -1.579069018363952637e+00 -9.552919864654541016e-01 -2.230024337768554688e+00 -9.815287590026855469e-01 -4.409799873828887939e-01 -1.465028762817382812e+00 2.964278459548950195e-01 -4.270075559616088867e-01 -1.313204526901245117e+00 -8.526414036750793457e-01 -1.849504858255386353e-01 -1.026060461997985840e+00 -6.264201402664184570e-01 -1.000056862831115723e+00 -9.899654984474182129e-02 -2.648339271545410156e-01 3.663651943206787109e-01 -1.805719733238220215e-01 -2.331579446792602539e+00 -2.478006124496459961e+00 1.300284504890441895e+00 1.504459381103515625e+00 7.202177494764328003e-02 -1.649927616119384766e+00 2.449946165084838867e+00 1.018730521202087402e+00 -1.000056862831115723e+00 -1.203968286514282227e+00 1.095242142677307129e+00 -4.320512115955352783e-01 -5.100918412208557129e-01 -4.197615683078765869e-01 5.338716506958007812e-01 1.394495964050292969e+00 1.661881566047668457e+00 -1.847878456115722656e+00 -5.666943192481994629e-01 -2.748609066009521484e+00 -4.268480092287063599e-02 1.040388345718383789e+00 5.875841528177261353e-02 3.432174921035766602e-01 1.159648522734642029e-01 -1.339961886405944824e+00 -1.689626336097717285e+00 -1.000005125999450684e+00 -3.948743939399719238e-01 1.083758831024169922e+00 3.162188827991485596e-01 -4.467968344688415527e-01 -4.721311926841735840e-01 -8.415409326553344727e-01 -1.121047973632812500e+00 8.257581591606140137e-01 -3.012529611587524414e+00 9.137816727161407471e-02 -7.478856444358825684e-01 1.233152627944946289e+00 -1.098724365234375000e+00 -2.985288500785827637e-01 -7.211743593215942383e-01
-8.956981897354125977e-01 -9.660874009132385254e-01 6.790887713432312012e-01 -1.598028063774108887e+00 -9.833867549896240234e-01 -2.282233715057373047e+00 -9.813218712806701660e-01 -4.434694349765777588e-01 -1.482231259346008301e+00 2.995336055755615234e-01 -4.341847896575927734e-01 -1.338112235069274902e+00 -8.555360436439514160e-01 -1.665653735399246216e-01 -1.058803796768188477e+00 -6.560412645339965820e-01 -1.000082969665527344e+00 -9.473150968551635742e-02 -2.798804342746734619e-01 3.493855297565460205e-01 -1.894759684801101685e-01 -2.351850509643554688e+00 -2.525447845458984375e+00 1.316624522209167480e+00 1.527515292167663574e+00 8.248881250619888306e-02 -1.665734648704528809e+00 2.488558292388916016e+00 1.032407760620117188e+00 -9.999812245368957520e-01 -1.221755981445312500e+00 1.116623163223266602e+00 -4.522140324115753174e-01 -5.215566754341125488e-01 -4.282610714435577393e-01 5.484137535095214844e-01 1.424746394157409668e+00 1.679883480072021484e+00 -1.870426774024963379e+00 -5.520073175430297852e-01 -2.777261257171630859e+00 -7.310744374990463257e-02 1.081457018852233887e+00 7.619638741016387939e-02 3.444714546203613281e-01 1.144231930375099182e-01 -1.353470802307128906e+00 -1.717093467712402344e+00 -1.000010728836059570e+00 -3.869052231311798096e-01 1.084160566329956055e+00 3.340263366699218750e-01 -4.621175825595855713e-01 -4.730805456638336182e-01 -8.826795220375061035e-01 -1.140908718109130859e+00 8.455727696418762207e-01 -3.043306350708007812e+00 1.231394484639167786e-01 -7.913082838058471680e-01 1.242004513740539551e+00 -1.128946542739868164e+00 -3.037005662918090820e-01 -7.353459596633911133e-01
-8.925702571868896484e-01 -9.637703299522399902e-01 6.737624406814575195e-01 -1.594243049621582031e+00 -9.777778387069702148e-01 -2.271810531616210938e+00 -9.813631772994995117e-01 -4.429724216461181641e-01 -1.478796958923339844e+00 2.989135682582855225e-01 -4.327518939971923828e-01 -1.333139657974243164e+00 -8.549581170082092285e-01 -1.702358275651931763e-01 -1.052266836166381836e+00 -6.501276493072509766e-01 -1.000077724456787109e+00 -9.558299183845520020e-02 -2.768765091896057129e-01 3.527753949165344238e-01 -1.876983493566513062e-01 -2.347803354263305664e+00 -2.515976428985595703e+00 1.313362360000610352e+00 1.522912383079528809e+00 8.039914816617965698e-02 -1.662578940391540527e+00 2.480849742889404297e+00 1.029677271842956543e+00 -9.999963045120239258e-01 -1.218204855918884277e+00 1.112354636192321777e+00 -4.481886923313140869e-01 -5.192678570747375488e-01 -4.265642166137695312e-01 5.455105304718017578e-01 1.418707132339477539e+00 1.676289558410644531e+00 -1.865925192832946777e+00 -5.549394488334655762e-01 -2.771540880203247070e+00 -6.703380495309829712e-02 1.073257923126220703e+00 7.271503657102584839e-02 3.442211151123046875e-01 1.147309690713882446e-01 -1.350773930549621582e+00 -1.711609840393066406e+00 -1.000009536743164062e+00 -3.884962201118469238e-01 1.084080338478088379e+00 3.304712176322937012e-01 -4.590589106082916260e-01 -4.728910028934478760e-01 -8.744665384292602539e-01 -1.136943578720092773e+00 8.416169285774230957e-01 -3.037162065505981445e+00 1.167985573410987854e-01 -7.826392650604248047e-01 1.240237236022949219e+00 -1.122912883758544922e+00 -3.026680648326873779e-01 -7.325167059898376465e-01
-8.964166045188903809e-01 -9.666195511817932129e-01 6.803120970726013184e-01 -1.598897337913513184e+00 -9.846749305725097656e-01 -2.284627437591552734e+00 -9.813123345375061035e-01 -4.435835778713226318e-01 -1.483020067214965820e+00 2.996760010719299316e-01 -4.345138669013977051e-01 -1.339254260063171387e+00 -8.556687235832214355e-01 -1.657223999500274658e-01 -1.060305118560791016e+00 -6.573994159698486328e-01 -1.000084161758422852e+00 -9.453594684600830078e-02 -2.805703282356262207e-01 3.486070036888122559e-01 -1.898842304944992065e-01 -2.352779865264892578e+00 -2.527622938156127930e+00 1.317373752593994141e+00 1.528572440147399902e+00 8.296873420476913452e-02 -1.666459441184997559e+00 2.490328788757324219e+00 1.033034920692443848e+00 -9.999777078628540039e-01 -1.222571611404418945e+00 1.117603540420532227e+00 -4.531385302543640137e-01 -5.220823884010314941e-01 -4.286507666110992432e-01 5.490805506706237793e-01 1.426133394241333008e+00 1.680708885192871094e+00 -1.871460556983947754e+00 -5.513339042663574219e-01 -2.778574943542480469e+00 -7.450236380100250244e-02 1.083340048789978027e+00 7.699594646692276001e-02 3.445289433002471924e-01 1.143525019288063049e-01 -1.354090213775634766e+00 -1.718352913856506348e+00 -1.000010967254638672e+00 -3.865398168563842773e-01 1.084178924560546875e+00 3.348428308963775635e-01 -4.628200531005859375e-01 -4.731240868568420410e-01 -8.845658302307128906e-01 -1.141819357872009277e+00 8.464813232421875000e-01 -3.044717550277709961e+00 1.245957463979721069e-01 -7.932992577552795410e-01 1.242410302162170410e+00 -1.130332231521606445e+00 -3.039377033710479736e-01 -7.359957695007324219e-01
-8.933517932891845703e-01 -9.643492698669433594e-01 6.750932335853576660e-01 -1.595188736915588379e+00 -9.791792631149291992e-01 -2.274414777755737305e+00 -9.813528060913085938e-01 -4.430966079235076904e-01 -1.479655027389526367e+00 2.990684807300567627e-01 -4.331099092960357666e-01 -1.334382057189941406e+00 -8.551025390625000000e-01 -1.693187505006790161e-01 -1.053900122642517090e+00 -6.516051888465881348e-01 -1.000079035758972168e+00 -9.537024050951004028e-02 -2.776270508766174316e-01 3.519284129142761230e-01 -1.881424933671951294e-01 -2.348814487457275391e+00 -2.518342971801757812e+00 1.314177513122558594e+00 1.524062395095825195e+00 8.092125505208969116e-02 -1.663367390632629395e+00 2.482775688171386719e+00 1.030359506607055664e+00 -9.999925494194030762e-01 -1.219092130661010742e+00 1.113421082496643066e+00 -4.491944313049316406e-01 -5.198397040367126465e-01 -4.269881844520568848e-01 5.462359189987182617e-01 1.420216083526611328e+00 1.677187561988830566e+00 -1.867049932479858398e+00 -5.542068481445312500e-01 -2.772970199584960938e+00 -6.855132430791854858e-02 1.075306534767150879e+00 7.358486205339431763e-02 3.442836701869964600e-01 1.146540716290473938e-01 -1.351447701454162598e+00 -1.712979912757873535e+00 -1.000009894371032715e+00 -3.880986869335174561e-01 1.084100365638732910e+00 3.313594758510589600e-01 -4.598231315612792969e-01 -4.729383587837219238e-01 -8.765186071395874023e-01 -1.137934327125549316e+00 8.426053524017333984e-01 -3.038697242736816406e+00 1.183828487992286682e-01 -7.848052382469177246e-01 1.240678787231445312e+00 -1.124420404434204102e+00 -3.029260337352752686e-01 -7.332236170768737793e-01
-8.872178196907043457e-01 -9.598054289817810059e-01 6.646482348442077637e-01 -1.587766289710998535e+00 -9.681801795959472656e-01 -2.253974914550781250e+00 -9.814338684082031250e-01 -4.421219825744628906e-01 -1.472920298576354980e+00 2.978525757789611816e-01 -4.303000271320343018e-01 -1.324630618095397949e+00 -8.539692759513854980e-01 -1.765165179967880249e-01 -1.041081070899963379e+00 -6.400085091590881348e-01 -1.000068902969360352e+00 -9.704000502824783325e-02 -2.717363536357879639e-01 3.585759699344635010e-01 -1.846565753221511841e-01 -2.340878486633300781e+00 -2.499769449234008789e+00 1.307780265808105469e+00 1.515035986900329590e+00 7.682341337203979492e-02 -1.657178878784179688e+00 2.467658996582031250e+00 1.025004863739013672e+00 -1.000022172927856445e+00 -1.212128162384033203e+00 1.105050444602966309e+00 -4.413006901741027832e-01 -5.153512358665466309e-01 -4.236606061458587646e-01 5.405426621437072754e-01 1.408372998237609863e+00 1.670139789581298828e+00 -1.858222246170043945e+00 -5.599567890167236328e-01 -2.761752843856811523e+00 -5.664085969328880310e-02 1.059228181838989258e+00 6.675789505243301392e-02 3.437927365303039551e-01 1.152576282620429993e-01 -1.346158981323242188e+00 -1.702226638793945312e+00 -1.000007629394531250e+00 -3.912186324596405029e-01 1.083943128585815430e+00 3.243878483772277832e-01 -4.538250565528869629e-01 -4.725666940212249756e-01 -8.604128360748291016e-01 -1.130158901214599609e+00 8.348479270935058594e-01 -3.026648044586181641e+00 1.059483140707015991e-01 -7.678052783012390137e-01 1.237213253974914551e+00 -1.112588405609130859e+00 -3.009013235569000244e-01 -7.276754379272460938e-01
-8.914576172828674316e-01 -9.629461169242858887e-01 6.718678474426269531e-01 -1.592896699905395508e+00 -9.757827520370483398e-01 -2.268102884292602539e+00 -9.813778400421142578e-01 -4.427956342697143555e-01 -1.477575421333312988e+00 2.986930012702941895e-01 -4.322422146797180176e-01 -1.331370830535888672e+00 -8.547526001930236816e-01 -1.715414077043533325e-01 -1.049941658973693848e+00 -6.480241417884826660e-01 -1.000075936317443848e+00 -9.588586539030075073e-02 -2.758080065250396729e-01 3.539811670780181885e-01 -1.870660483837127686e-01 -2.346364021301269531e+00 -2.512607336044311523e+00 1.312202095985412598e+00 1.521275043487548828e+00 7.965584844350814819e-02 -1.661456465721130371e+00 2.478107690811157227e+00 1.028705954551696777e+00 -1.000001668930053711e+00 -1.216941714286804199e+00 1.110836267471313477e+00 -4.467568695545196533e-01 -5.184536576271057129e-01 -4.259606301784515381e-01 5.444778800010681152e-01 1.416558980941772461e+00 1.675011157989501953e+00 -1.864323973655700684e+00 -5.559824109077453613e-01 -2.769506216049194336e+00 -6.487338989973068237e-02 1.070341587066650391e+00 7.147670537233352661e-02 3.441320657730102539e-01 1.148404479026794434e-01 -1.349814534187316895e+00 -1.709659337997436523e+00 -1.000009179115295410e+00 -3.890621066093444824e-01 1.084051847457885742e+00 3.292066454887390137e-01 -4.579709470272064209e-01 -4.728235900402069092e-01 -8.715451359748840332e-01 -1.135533213615417480e+00 8.402098417282104492e-01 -3.034976482391357422e+00 1.145430877804756165e-01 -7.795556783676147461e-01 1.239608645439147949e+00 -1.120766758918762207e+00 -3.023008108139038086e-01 -7.315103411674499512e-01
-8.760132789611816406e-01 -9.515054821968078613e-01 6.455687880516052246e-01 -1.574208140373229980e+00 -9.480887055397033691e-01 -2.216638088226318359e+00 -9.815818071365356445e-01 -4.403417110443115234e-01 -1.460618138313293457e+00 2.956315577030181885e-01 -4.251673519611358643e-01 -1.306818246841430664e+00 -8.518992662429809570e-01 -1.896643191576004028e-01 -1.017665266990661621e+00 -6.188254952430725098e-01 -1.000050187110900879e+00 -1.000900790095329285e-01 -2.609760761260986328e-01 3.707186877727508545e-01 -1.782890260219573975e-01 -2.326381921768188477e+00 -2.465842247009277344e+00 1.296094894409179688e+00 1.498547911643981934e+00 6.933808326721191406e-02 -1.645874738693237305e+00 2.440046310424804688e+00 1.015223741531372070e+00 -1.000076293945312500e+00 -1.199407577514648438e+00 1.089760184288024902e+00 -4.268815815448760986e-01 -5.071523785591125488e-01 -4.175823330879211426e-01 5.301431417465209961e-01 1.386739969253540039e+00 1.657266020774841309e+00 -1.842097282409667969e+00 -5.704599618911743164e-01 -2.741262674331665039e+00 -3.488460183143615723e-02 1.029858589172363281e+00 5.428741499781608582e-02 3.428960144519805908e-01 1.163601279258728027e-01 -1.336498260498046875e+00 -1.682583928108215332e+00 -1.000003695487976074e+00 -3.969176411628723145e-01 1.083655834197998047e+00 3.116531372070312500e-01 -4.428687095642089844e-01 -4.718877971172332764e-01 -8.309931755065917969e-01 -1.115955829620361328e+00 8.206778168678283691e-01 -3.004638671875000000e+00 8.323474973440170288e-02 -7.367523312568664551e-01 1.230883002281188965e+00 -1.090975522994995117e+00 -2.972028553485870361e-01 -7.175408005714416504e-01
-8.915637135505676270e-01 -9.630247354507446289e-01 6.720485091209411621e-01 -1.593025088310241699e+00 -9.759730100631713867e-01 -2.268456459045410156e+00 -9.813764691352844238e-01 -4.428125023841857910e-01 -1.477691888809204102e+00 2.987140417098999023e-01 -4.322908222675323486e-01 -1.331539511680603027e+00 -8.547722101211547852e-01 -1.714169085025787354e-01 -1.050163388252258301e+00 -6.482247114181518555e-01 -1.000076055526733398e+00 -9.585697948932647705e-02 -2.759099006652832031e-01 3.538661897182464600e-01 -1.871263384819030762e-01 -2.346501111984252930e+00 -2.512928724288940430e+00 1.312312722206115723e+00 1.521431207656860352e+00 7.972672581672668457e-02 -1.661563396453857422e+00 2.478369235992431641e+00 1.028798580169677734e+00 -1.000001192092895508e+00 -1.217062115669250488e+00 1.110981106758117676e+00 -4.468933939933776855e-01 -5.185313224792480469e-01 -4.260181784629821777e-01 5.445763468742370605e-01 1.416763782501220703e+00 1.675133109092712402e+00 -1.864476680755615234e+00 -5.558829903602600098e-01 -2.769700288772583008e+00 -6.507939845323562622e-02 1.070619702339172363e+00 7.159478962421417236e-02 3.441405594348907471e-01 1.148300096392631531e-01 -1.349906086921691895e+00 -1.709845304489135742e+00 -1.000009179115295410e+00 -3.890081644058227539e-01 1.084054589271545410e+00 3.293272256851196289e-01 -4.580746889114379883e-01 -4.728300273418426514e-01 -8.718237280845642090e-01 -1.135667800903320312e+00 8.403440117835998535e-01 -3.035184860229492188e+00 1.147581562399864197e-01 -7.798497080802917480e-01 1.239668607711791992e+00 -1.120971322059631348e+00 -3.023358285427093506e-01 -7.316063046455383301e-01
-8.852682113647460938e-01 -9.583612084388732910e-01 6.613283157348632812e-01 -1.585407137870788574e+00 -9.646841287612915039e-01 -2.247478008270263672e+00 -9.814595580101013184e-01 -4.418122172355651855e-01 -1.470779657363891602e+00 2.974660992622375488e-01 -4.294069111347198486e-01 -1.321531176567077637e+00 -8.536090850830078125e-01 -1.788042932748794556e-01 -1.037006616592407227e+00 -6.363225579261779785e-01 -1.000065684318542480e+00 -9.757073223590850830e-02 -2.698639929294586182e-01 3.606888353824615479e-01 -1.835485994815826416e-01 -2.338356018066406250e+00 -2.493865966796875000e+00 1.305747032165527344e+00 1.512166976928710938e+00 7.552093267440795898e-02 -1.655211925506591797e+00 2.462854385375976562e+00 1.023302912712097168e+00 -1.000031590461730957e+00 -1.209914803504943848e+00 1.102389931678771973e+00 -4.387916922569274902e-01 -5.139245986938476562e-01 -4.226029813289642334e-01 5.387331247329711914e-01 1.404608845710754395e+00 1.667899727821350098e+00 -1.855416417121887207e+00 -5.617843866348266602e-01 -2.758187532424926758e+00 -5.285517871379852295e-02 1.054117679595947266e+00 6.458798050880432129e-02 3.436366915702819824e-01 1.154494732618331909e-01 -1.344478011131286621e+00 -1.698808670043945312e+00 -1.000007033348083496e+00 -3.922102749347686768e-01 1.083893060684204102e+00 3.221719563007354736e-01 -4.519186019897460938e-01 -4.724485576152801514e-01 -8.552936911582946777e-01 -1.127687454223632812e+00 8.323822617530822754e-01 -3.022818326950073242e+00 1.019960567355155945e-01 -7.624019384384155273e-01 1.236111760139465332e+00 -1.108827710151672363e+00 -3.002577722072601318e-01 -7.259119749069213867e-01
-8.818041682243347168e-01 -9.557951688766479492e-01 6.554296612739562988e-01 -1.581215381622314453e+00 -9.584726095199584961e-01 -2.235934972763061523e+00 -9.815053343772888184e-01 -4.412618279457092285e-01 -1.466976284980773926e+00 2.967794537544250488e-01 -4.278200864791870117e-01 -1.316024303436279297e+00 -8.529691100120544434e-01 -1.828691065311431885e-01 -1.029767394065856934e+00 -6.297735571861267090e-01 -1.000059843063354492e+00 -9.851370006799697876e-02 -2.665373384952545166e-01 3.644429147243499756e-01 -1.815799921751022339e-01 -2.333874225616455078e+00 -2.483376979827880859e+00 1.302134275436401367e+00 1.507069468498229980e+00 7.320674508810043335e-02 -1.651717066764831543e+00 2.454317569732666016e+00 1.020278930664062500e+00 -1.000048279762268066e+00 -1.205981969833374023e+00 1.097662687301635742e+00 -4.343338310718536377e-01 -5.113897919654846191e-01 -4.207237958908081055e-01 5.355179309844970703e-01 1.397920608520507812e+00 1.663919568061828613e+00 -1.850431203842163086e+00 -5.650315880775451660e-01 -2.751852750778198242e+00 -4.612894728779792786e-02 1.045037746429443359e+00 6.073256954550743103e-02 3.433594703674316406e-01 1.157903224229812622e-01 -1.341491222381591797e+00 -1.692735910415649414e+00 -1.000005722045898438e+00 -3.939721882343292236e-01 1.083804249763488770e+00 3.182348608970642090e-01 -4.485312998294830322e-01 -4.722386598587036133e-01 -8.461982011795043945e-01 -1.123296380043029785e+00 8.280013799667358398e-01 -3.016013860702514648e+00 9.497386217117309570e-02 -7.528015375137329102e-01 1.234154701232910156e+00 -1.102145791053771973e+00 -2.991143465042114258e-01 -7.227787375450134277e-01
-8.930966854095458984e-01 -9.641603231430053711e-01 6.746588945388793945e-01 -1.594880104064941406e+00 -9.787218570709228516e-01 -2.273564815521240234e+00 -9.813562035560607910e-01 -4.430560767650604248e-01 -1.479375004768371582e+00 2.990179061889648438e-01 -4.329930543899536133e-01 -1.333976507186889648e+00 -8.550553917884826660e-01 -1.696180552244186401e-01 -1.053367018699645996e+00 -6.511229276657104492e-01 -1.000078678131103516e+00 -9.543967992067337036e-02 -2.773821055889129639e-01 3.522048592567443848e-01 -1.879975348711013794e-01 -2.348484516143798828e+00 -2.517570495605468750e+00 1.313911437988281250e+00 1.523687124252319336e+00 8.075085282325744629e-02 -1.663110017776489258e+00 2.482147216796875000e+00 1.030136823654174805e+00 -9.999938011169433594e-01 -1.218802571296691895e+00 1.113073110580444336e+00 -4.488661885261535645e-01 -5.196530818939208984e-01 -4.268498122692108154e-01 5.459991693496704102e-01 1.419723629951477051e+00 1.676894426345825195e+00 -1.866682767868041992e+00 -5.544459223747253418e-01 -2.772503852844238281e+00 -6.805603951215744019e-02 1.074637889862060547e+00 7.330097258090972900e-02 3.442632555961608887e-01 1.146791651844978333e-01 -1.351227760314941406e+00 -1.712532758712768555e+00 -1.000009775161743164e+00 -3.882284462451934814e-01 1.084093809127807617e+00 3.310695886611938477e-01 -4.595737159252166748e-01 -4.729229211807250977e-01 -8.758488297462463379e-01 -1.137611031532287598e+00 8.422827720642089844e-01 -3.038196086883544922e+00 1.178657785058021545e-01 -7.840983271598815918e-01 1.240534663200378418e+00 -1.123928427696228027e+00 -3.028418421745300293e-01 -7.329928874969482422e-01
-8.870511054992675781e-01 -9.596819281578063965e-01 6.643642783164978027e-01 -1.587564468383789062e+00 -9.678811430931091309e-01 -2.253419160842895508e+00 -9.814360141754150391e-01 -4.420954883098602295e-01 -1.472737193107604980e+00 2.978195250034332275e-01 -4.302236437797546387e-01 -1.324365496635437012e+00 -8.539384603500366211e-01 -1.767121851444244385e-01 -1.040732622146606445e+00 -6.396932601928710938e-01 -1.000068545341491699e+00 -9.708540141582489014e-02 -2.715761959552764893e-01 3.587566614151000977e-01 -1.845618188381195068e-01 -2.340662717819213867e+00 -2.499264478683471680e+00 1.307606458663940430e+00 1.514790654182434082e+00 7.671201229095458984e-02 -1.657010674476623535e+00 2.467248201370239258e+00 1.024859309196472168e+00 -1.000023007392883301e+00 -1.211938858032226562e+00 1.104822874069213867e+00 -4.410860836505889893e-01 -5.152292251586914062e-01 -4.235701560974121094e-01 5.403879284858703613e-01 1.408051133155822754e+00 1.669948220252990723e+00 -1.857982277870178223e+00 -5.601131319999694824e-01 -2.761447906494140625e+00 -5.631707236170768738e-02 1.058791041374206543e+00 6.657230854034423828e-02 3.437793850898742676e-01 1.152740418910980225e-01 -1.346015214920043945e+00 -1.701934218406677246e+00 -1.000007629394531250e+00 -3.913034200668334961e-01 1.083938837051391602e+00 3.241983354091644287e-01 -4.536620080471038818e-01 -4.725565910339355469e-01 -8.599749803543090820e-01 -1.129947423934936523e+00 8.346370458602905273e-01 -3.026320457458496094e+00 1.056102812290191650e-01 -7.673431634902954102e-01 1.237119078636169434e+00 -1.112266778945922852e+00 -3.008462786674499512e-01 -7.275245785713195801e-01
-8.550501465797424316e-01 -9.359766840934753418e-01 6.098722815513610840e-01 -1.548841357231140137e+00 -9.104985594749450684e-01 -2.146783351898193359e+00 -9.818586707115173340e-01 -4.370108842849731445e-01 -1.437601566314697266e+00 2.914761304855346680e-01 -4.155643880367279053e-01 -1.273492336273193359e+00 -8.480263352394104004e-01 -2.142631709575653076e-01 -9.738554358482360840e-01 -5.791931152343750000e-01 -1.000015377998352051e+00 -1.057966053485870361e-01 -2.408441752195358276e-01 3.934370577335357666e-01 -1.663756817579269409e-01 -2.299259901046752930e+00 -2.402366399765014648e+00 1.274232268333435059e+00 1.467699527740478516e+00 5.533343926072120667e-02 -1.624725222587585449e+00 2.388383865356445312e+00 9.969239234924316406e-01 -1.000177502632141113e+00 -1.175608038902282715e+00 1.061152815818786621e+00 -3.999041616916656494e-01 -4.918126761913299561e-01 -4.062102138996124268e-01 5.106860995292663574e-01 1.346265554428100586e+00 1.633179903030395508e+00 -1.811928272247314453e+00 -5.901108384132385254e-01 -2.702926874160766602e+00 5.820193793624639511e-03 9.749097228050231934e-01 3.095580823719501495e-02 3.412182629108428955e-01 1.184228360652923584e-01 -1.318423628807067871e+00 -1.645833492279052734e+00 -9.999963045120239258e-01 -4.075801968574523926e-01 1.083118319511413574e+00 2.878271341323852539e-01 -4.223698973655700684e-01 -4.706175625324249268e-01 -7.759506106376647949e-01 -1.089382648468017578e+00 7.941663265228271484e-01 -2.963459968566894531e+00 4.073889181017875671e-02 -6.786538362503051758e-01 1.219039440155029297e+00 -1.050539016723632812e+00 -2.902832627296447754e-01 -6.985794901847839355e-01
-8.887333273887634277e-01 -9.609280824661254883e-01 6.672288775444030762e-01 -1.589600205421447754e+00 -9.708977341651916504e-01 -2.259024858474731445e+00 -9.814138412475585938e-01 -4.423627853393554688e-01 -1.474584221839904785e+00 2.981529831886291504e-01 -4.309942722320556641e-01 -1.327039957046508789e+00 -8.542492985725402832e-01 -1.747381538152694702e-01 -1.044248342514038086e+00 -6.428737044334411621e-01 -1.000071406364440918e+00 -9.662745893001556396e-02 -2.731917500495910645e-01 3.569335341453552246e-01 -1.855178475379943848e-01 -2.342839241027832031e+00 -2.504358291625976562e+00 1.309360861778259277e+00 1.517266154289245605e+00 7.783587276935577393e-02 -1.658707857131958008e+00 2.471394062042236328e+00 1.026327848434448242e+00 -1.000014901161193848e+00 -1.213848829269409180e+00 1.107118606567382812e+00 -4.432510137557983398e-01 -5.164601802825927734e-01 -4.244827628135681152e-01 5.419493317604064941e-01 1.411299109458923340e+00 1.671881079673767090e+00 -1.860403299331665039e+00 -5.585361719131469727e-01 -2.764524459838867188e+00 -5.958358570933341980e-02 1.063200712203979492e+00 6.844463944435119629e-02 3.439140319824218750e-01 1.151085123419761658e-01 -1.347465634346008301e+00 -1.704883456230163574e+00 -1.000008225440979004e+00 -3.904477655887603760e-01 1.083981990814208984e+00 3.261103332042694092e-01 -4.553070068359375000e-01 -4.726585149765014648e-01 -8.643921017646789551e-01 -1.132079958915710449e+00 8.367645740509033203e-01 -3.029625177383422852e+00 1.090205237269401550e-01 -7.720054984092712402e-01 1.238069534301757812e+00 -1.115511775016784668e+00 -3.014015853404998779e-01 -7.290462255477905273e-01
-8.911548852920532227e-01 -9.627218842506408691e-01 6.713523864746093750e-01 -1.592530369758605957e+00 -9.752399325370788574e-01 -2.267094135284423828e+00 -9.813818335533142090e-01 -4.427475333213806152e-01 -1.477242946624755859e+00 2.986330091953277588e-01 -4.321035444736480713e-01 -1.330889582633972168e+00 -8.546966314315795898e-01 -1.718966215848922729e-01 -1.049309015274047852e+00 -6.474518775939941406e-01 -1.000075459480285645e+00 -9.596826881170272827e-02 -2.755172848701477051e-01 3.543092310428619385e-01 -1.868940144777297974e-01 -2.345972299575805664e+00 -2.511690855026245117e+00 1.311886310577392578e+00 1.520829677581787109e+00 7.945361733436584473e-02 -1.661151051521301270e+00 2.477361679077148438e+00 1.028441786766052246e+00 -1.000003099441528320e+00 -1.216598033905029297e+00 1.110423207283020020e+00 -4.463672935962677002e-01 -5.182321667671203613e-01 -4.257964193820953369e-01 5.441969037055969238e-01 1.415974497795104980e+00 1.674663424491882324e+00 -1.863888263702392578e+00 -5.562661886215209961e-01 -2.768952846527099609e+00 -6.428559869527816772e-02 1.069548130035400391e+00 7.113979011774063110e-02 3.441078364849090576e-01 1.148702353239059448e-01 -1.349553585052490234e+00 -1.709128618240356445e+00 -1.000009059906005859e+00 -3.892160952091217041e-01 1.084044098854064941e+00 3.288626074790954590e-01 -4.576749205589294434e-01 -4.728052616119384766e-01 -8.707503080368041992e-01 -1.135149598121643066e+00 8.398270010948181152e-01 -3.034381866455078125e+00 1.139294281601905823e-01 -7.787167429924011230e-01 1.239437699317932129e+00 -1.120182752609252930e+00 -3.022008836269378662e-01 -7.312365174293518066e-01
-8.843355774879455566e-01 -9.576703310012817383e-01 6.597402691841125488e-01 -1.584278583526611328e+00 -9.630118608474731445e-01 -2.244370460510253906e+00 -9.814718961715698242e-01 -4.416640400886535645e-01 -1.469755649566650391e+00 2.972812354564666748e-01 -4.289796948432922363e-01 -1.320048570632934570e+00 -8.534368276596069336e-01 -1.798986494541168213e-01 -1.035057663917541504e+00 -6.345593929290771484e-01 -1.000064015388488770e+00 -9.782460331916809082e-02 -2.689683735370635986e-01 3.616995513439178467e-01 -1.830185949802398682e-01 -2.337149381637573242e+00 -2.491042137145996094e+00 1.304774403572082520e+00 1.510794639587402344e+00 7.489789277315139771e-02 -1.654271006584167480e+00 2.460556030273437500e+00 1.022488713264465332e+00 -1.000036120414733887e+00 -1.208855986595153809e+00 1.101117253303527832e+00 -4.375915229320526123e-01 -5.132421851158142090e-01 -4.220970571041107178e-01 5.378674864768981934e-01 1.402808189392089844e+00 1.666828155517578125e+00 -1.854074239730834961e+00 -5.626586079597473145e-01 -2.756482124328613281e+00 -5.104428902268409729e-02 1.051673173904418945e+00 6.354999542236328125e-02 3.435620665550231934e-01 1.155412346124649048e-01 -1.343673825263977051e+00 -1.697173714637756348e+00 -1.000006675720214844e+00 -3.926846385002136230e-01 1.083869218826293945e+00 3.211119771003723145e-01 -4.510066509246826172e-01 -4.723920524120330811e-01 -8.528448939323425293e-01 -1.126505255699157715e+00 8.312028050422668457e-01 -3.020986318588256836e+00 1.001054868102073669e-01 -7.598172426223754883e-01 1.235584974288940430e+00 -1.107028722763061523e+00 -2.999499440193176270e-01 -7.250683903694152832e-01
-8.931196928024291992e-01 -9.641773700714111328e-01 6.746980547904968262e-01 -1.594907879829406738e+00 -9.787631034851074219e-01 -2.273641347885131836e+00 -9.813559055328369141e-01 -4.430597424507141113e-01 -1.479400277137756348e+00 2.990224659442901611e-01 -4.330036044120788574e-01 -1.334013104438781738e+00 -8.550596833229064941e-01 -1.695910692214965820e-01 -1.053415179252624512e+00 -6.511664390563964844e-01 -1.000078678131103516e+00 -9.543341398239135742e-02 -2.774041891098022461e-01 3.521799147129058838e-01 -1.880106180906295776e-01 -2.348514318466186523e+00 -2.517640113830566406e+00 1.313935399055480957e+00 1.523720979690551758e+00 8.076622337102890015e-02 -1.663133263587951660e+00 2.482203960418701172e+00 1.030156850814819336e+00 -9.999936819076538086e-01 -1.218828678131103516e+00 1.113104462623596191e+00 -4.488957822322845459e-01 -5.196698904037475586e-01 -4.268622696399688721e-01 5.460205078125000000e-01 1.419767975807189941e+00 1.676920890808105469e+00 -1.866715908050537109e+00 -5.544244050979614258e-01 -2.772545814514160156e+00 -6.810071319341659546e-02 1.074698209762573242e+00 7.332658022642135620e-02 3.442650735378265381e-01 1.146769076585769653e-01 -1.351247668266296387e+00 -1.712573170661926270e+00 -1.000009775161743164e+00 -3.882167339324951172e-01 1.084094405174255371e+00 3.310957252979278564e-01 -4.595962166786193848e-01 -4.729243218898773193e-01 -8.759092688560485840e-01 -1.137640118598937988e+00 8.423118591308593750e-01 -3.038241386413574219e+00 1.179124116897583008e-01 -7.841621041297912598e-01 1.240547657012939453e+00 -1.123972773551940918e+00 -3.028494417667388916e-01 -7.330137491226196289e-01
-8.831738233566284180e-01 -9.568097591400146484e-01 6.577619910240173340e-01 -1.582872748374938965e+00 -9.609286189079284668e-01 -2.240499019622802734e+00 -9.814872741699218750e-01 -4.414794445037841797e-01 -1.468480110168457031e+00 2.970509529113769531e-01 -4.284475147724151611e-01 -1.318201661109924316e+00 -8.532221913337707520e-01 -1.812618970870971680e-01 -1.032629728317260742e+00 -6.323630213737487793e-01 -1.000062108039855957e+00 -9.814085811376571655e-02 -2.678526937961578369e-01 3.629585802555084229e-01 -1.823583692312240601e-01 -2.335646390914916992e+00 -2.487524271011352539e+00 1.303562760353088379e+00 1.509085059165954590e+00 7.412176579236984253e-02 -1.653098940849304199e+00 2.457692861557006836e+00 1.021474599838256836e+00 -1.000041723251342773e+00 -1.207537055015563965e+00 1.099531769752502441e+00 -4.360964596271514893e-01 -5.123920440673828125e-01 -4.214667975902557373e-01 5.367892384529113770e-01 1.400565147399902344e+00 1.665493369102478027e+00 -1.852402329444885254e+00 -5.637476444244384766e-01 -2.754357576370239258e+00 -4.878846555948257446e-02 1.048627972602844238e+00 6.225698068737983704e-02 3.434690833091735840e-01 1.156555488705635071e-01 -1.342672228813171387e+00 -1.695137023925781250e+00 -1.000006198883056641e+00 -3.932755291461944580e-01 1.083839416503906250e+00 3.197915554046630859e-01 -4.498706459999084473e-01 -4.723216593265533447e-01 -8.497945070266723633e-01 -1.125032663345336914e+00 8.297335505485534668e-01 -3.018704414367675781e+00 9.775040298700332642e-02 -7.565974593162536621e-01 1.234928607940673828e+00 -1.104787826538085938e+00 -2.995664477348327637e-01 -7.240176200866699219e-01
-8.908819556236267090e-01 -9.625197052955627441e-01 6.708875894546508789e-01 -1.592200160026550293e+00 -9.747505187988281250e-01 -2.266184568405151367e+00 -9.813854694366455078e-01 -4.427041709423065186e-01 -1.476943254470825195e+00 2.985788881778717041e-01 -4.319785237312316895e-01 -1.330455660820007324e+00 -8.546462059020996094e-01 -1.722169071435928345e-01 -1.048738598823547363e+00 -6.469358205795288086e-01 -1.000074982643127441e+00 -9.604256600141525269e-02 -2.752551734447479248e-01 3.546050190925598145e-01 -1.867389082908630371e-01 -2.345619201660156250e+00 -2.510864257812500000e+00 1.311601638793945312e+00 1.520427942276000977e+00 7.927127182483673096e-02 -1.660875678062438965e+00 2.476689100265502930e+00 1.028203487396240234e+00 -1.000004410743713379e+00 -1.216288089752197266e+00 1.110050678253173828e+00 -4.460160434246063232e-01 -5.180324316024780273e-01 -4.256483316421508789e-01 5.439435243606567383e-01 1.415447473526000977e+00 1.674349784851074219e+00 -1.863495469093322754e+00 -5.565220713615417480e-01 -2.768453598022460938e+00 -6.375560909509658813e-02 1.068832635879516602e+00 7.083600759506225586e-02 3.440859913825988770e-01 1.148970946669578552e-01 -1.349318265914916992e+00 -1.708650112152099609e+00 -1.000008940696716309e+00 -3.893549144268035889e-01 1.084037065505981445e+00 3.285523653030395508e-01 -4.574080407619476318e-01 -4.727887213230133057e-01 -8.700336217880249023e-01 -1.134803533554077148e+00 8.394818305969238281e-01 -3.033845663070678711e+00 1.133761182427406311e-01 -7.779603004455566406e-01 1.239283442497253418e+00 -1.119656324386596680e+00 -3.021107912063598633e-01 -7.309896349906921387e-01
-8.805724978446960449e-01 -9.548828005790710449e-01 6.533323526382446289e-01 -1.579725027084350586e+00 -9.562640786170959473e-01 -2.231830835342407227e+00 -9.815216064453125000e-01 -4.410661160945892334e-01 -1.465623974800109863e+00 2.965353131294250488e-01 -4.272558689117431641e-01 -1.314066290855407715e+00 -8.527415990829467773e-01 -1.843143701553344727e-01 -1.027193307876586914e+00 -6.274450421333312988e-01 -1.000057816505432129e+00 -9.884898364543914795e-02 -2.653545141220092773e-01 3.657777011394500732e-01 -1.808800399303436279e-01 -2.332280635833740234e+00 -2.479647636413574219e+00 1.300849795341491699e+00 1.505257010459899902e+00 7.238392531871795654e-02 -1.650474548339843750e+00 2.451282024383544922e+00 1.019203782081604004e+00 -1.000054240226745605e+00 -1.204583764076232910e+00 1.095981955528259277e+00 -4.327488243579864502e-01 -5.104885101318359375e-01 -4.200556278228759766e-01 5.343747735023498535e-01 1.395542621612548828e+00 1.662504434585571289e+00 -1.848658680915832520e+00 -5.661861300468444824e-01 -2.749600410461425781e+00 -4.373739287257194519e-02 1.041809320449829102e+00 5.936175212264060974e-02 3.432608842849731445e-01 1.159115135669708252e-01 -1.340429306030273438e+00 -1.690576672554016113e+00 -1.000005364418029785e+00 -3.945986628532409668e-01 1.083772659301757812e+00 3.168349862098693848e-01 -4.473269283771514893e-01 -4.721640348434448242e-01 -8.429642319679260254e-01 -1.121735095977783203e+00 8.264437317848205566e-01 -3.013594388961791992e+00 9.247707575559616089e-02 -7.493880391120910645e-01 1.233458876609802246e+00 -1.099769949913024902e+00 -2.987077832221984863e-01 -7.216646671295166016e-01
-8.842247128486633301e-01 -9.575881958007812500e-01 6.595514416694641113e-01 -1.584144473075866699e+00 -9.628130197525024414e-01 -2.244000911712646484e+00 -9.814733862876892090e-01 -4.416463971138000488e-01 -1.469633936882019043e+00 2.972592711448669434e-01 -4.289289116859436035e-01 -1.319872379302978516e+00 -8.534163236618041992e-01 -1.800287663936614990e-01 -1.034825921058654785e+00 -6.343497633934020996e-01 -1.000063896179199219e+00 -9.785479307174682617e-02 -2.688618898391723633e-01 3.618197143077850342e-01 -1.829555779695510864e-01 -2.337005853652954102e+00 -2.490706205368041992e+00 1.304658770561218262e+00 1.510631442070007324e+00 7.482381165027618408e-02 -1.654159188270568848e+00 2.460282802581787109e+00 1.022391915321350098e+00 -1.000036597251892090e+00 -1.208730101585388184e+00 1.100965857505798340e+00 -4.374488294124603271e-01 -5.131610035896301270e-01 -4.220368862152099609e-01 5.377646088600158691e-01 1.402594089508056641e+00 1.666700720787048340e+00 -1.853914737701416016e+00 -5.627625584602355957e-01 -2.756279230117797852e+00 -5.082898214459419250e-02 1.051382541656494141e+00 6.342658400535583496e-02 3.435531854629516602e-01 1.155521497130393982e-01 -1.343578219413757324e+00 -1.696979284286499023e+00 -1.000006556510925293e+00 -3.927410244941711426e-01 1.083866357803344727e+00 3.209859430789947510e-01 -4.508982300758361816e-01 -4.723853468894958496e-01 -8.525537848472595215e-01 -1.126364707946777344e+00 8.310625553131103516e-01 -3.020768642425537109e+00 9.988070279359817505e-02 -7.595099210739135742e-01 1.235522270202636719e+00 -1.106814861297607422e+00 -2.999133467674255371e-01 -7.249681353569030762e-01
-8.871117234230041504e-01 -9.597268104553222656e-01 6.644675135612487793e-01 -1.587637901306152344e+00 -9.679898619651794434e-01 -2.253621101379394531e+00 -9.814352393150329590e-01 -4.421051144599914551e-01 -1.472803711891174316e+00 2.978315353393554688e-01 -4.302514195442199707e-01 -1.324461936950683594e+00 -8.539496660232543945e-01 -1.766410470008850098e-01 -1.040859341621398926e+00 -6.398078799247741699e-01 -1.000068664550781250e+00 -9.706889837980270386e-02 -2.716344296932220459e-01 3.586909770965576172e-01 -1.845962703227996826e-01 -2.340741157531738281e+00 -2.499448060989379883e+00 1.307669639587402344e+00 1.514879822731018066e+00 7.675251364707946777e-02 -1.657071828842163086e+00 2.467397451400756836e+00 1.024912238121032715e+00 -1.000022649765014648e+00 -1.212007761001586914e+00 1.104905605316162109e+00 -4.411641061305999756e-01 -5.152735710144042969e-01 -4.236030578613281250e-01 5.404441952705383301e-01 1.408168196678161621e+00 1.670017838478088379e+00 -1.858069539070129395e+00 -5.600562691688537598e-01 -2.761558771133422852e+00 -5.643478780984878540e-02 1.058949947357177734e+00 6.663978099822998047e-02 3.437842428684234619e-01 1.152680739760398865e-01 -1.346067428588867188e+00 -1.702040553092956543e+00 -1.000007629394531250e+00 -3.912726044654846191e-01 1.083940386772155762e+00 3.242672383785247803e-01 -4.537212848663330078e-01 -4.725602567195892334e-01 -8.601341247558593750e-01 -1.130024313926696777e+00 8.347136974334716797e-01 -3.026439666748046875e+00 1.057331711053848267e-01 -7.675111889839172363e-01 1.237153291702270508e+00 -1.112383723258972168e+00 -3.008663058280944824e-01 -7.275794148445129395e-01
-8.884766101837158203e-01 -9.607378840446472168e-01 6.667916774749755859e-01 -1.589289546012878418e+00 -9.704373478889465332e-01 -2.258169412612915039e+00 -9.814172387123107910e-01 -4.423219859600067139e-01 -1.474302291870117188e+00 2.981021106243133545e-01 -4.308766424655914307e-01 -1.326631784439086914e+00 -8.542018532752990723e-01 -1.750394254922866821e-01 -1.043711781501770020e+00 -6.423883438110351562e-01 -1.000070929527282715e+00 -9.669734537601470947e-02 -2.729451954364776611e-01 3.572117686271667480e-01 -1.853719502687454224e-01 -2.342507123947143555e+00 -2.503581047058105469e+00 1.309093117713928223e+00 1.516888380050659180e+00 7.766435295343399048e-02 -1.658448934555053711e+00 2.470761299133300781e+00 1.026103734970092773e+00 -1.000016093254089355e+00 -1.213557362556457520e+00 1.106768250465393066e+00 -4.429205954074859619e-01 -5.162723660469055176e-01 -4.243434965610504150e-01 5.417110323905944824e-01 1.410803437232971191e+00 1.671586155891418457e+00 -1.860033869743347168e+00 -5.587767958641052246e-01 -2.764054775238037109e+00 -5.908507108688354492e-02 1.062527656555175781e+00 6.815889477729797363e-02 3.438934683799743652e-01 1.151337698101997375e-01 -1.347244262695312500e+00 -1.704433321952819824e+00 -1.000008106231689453e+00 -3.905783593654632568e-01 1.083975434303283691e+00 3.258185386657714844e-01 -4.550559520721435547e-01 -4.726429581642150879e-01 -8.637179732322692871e-01 -1.131754517555236816e+00 8.364398479461669922e-01 -3.029120683670043945e+00 1.085000708699226379e-01 -7.712939381599426270e-01 1.237924456596374512e+00 -1.115016579627990723e+00 -3.013168275356292725e-01 -7.288140058517456055e-01
-8.911954760551452637e-01 -9.627519249916076660e-01 6.714214682579040527e-01 -1.592579483985900879e+00 -9.753127098083496094e-01 -2.267229318618774414e+00 -9.813812971115112305e-01 -4.427540004253387451e-01 -1.477287530899047852e+00 2.986410558223724365e-01 -4.321221411228179932e-01 -1.330954074859619141e+00 -8.547041416168212891e-01 -1.718490123748779297e-01 -1.049393773078918457e+00 -6.475285887718200684e-01 -1.000075459480285645e+00 -9.595721960067749023e-02 -2.755562663078308105e-01 3.542652726173400879e-01 -1.869170814752578735e-01 -2.346024751663208008e+00 -2.511813640594482422e+00 1.311928629875183105e+00 1.520889282226562500e+00 7.948072254657745361e-02 -1.661191940307617188e+00 2.477461814880371094e+00 1.028477191925048828e+00 -1.000002980232238770e+00 -1.216644048690795898e+00 1.110478520393371582e+00 -4.464195072650909424e-01 -5.182618498802185059e-01 -4.258184134960174561e-01 5.442345738410949707e-01 1.416052818298339844e+00 1.674710035324096680e+00 -1.863946676254272461e+00 -5.562281608581542969e-01 -2.769026994705200195e+00 -6.436438858509063721e-02 1.069654464721679688e+00 7.118494808673858643e-02 3.441110849380493164e-01 1.148662418127059937e-01 -1.349588513374328613e+00 -1.709199786186218262e+00 -1.000009059906005859e+00 -3.891954421997070312e-01 1.084045052528381348e+00 3.289087116718292236e-01 -4.577146172523498535e-01 -4.728077054023742676e-01 -8.708568215370178223e-01 -1.135200977325439453e+00 8.398783206939697266e-01 -3.034461498260498047e+00 1.140116825699806213e-01 -7.788291573524475098e-01 1.239460587501525879e+00 -1.120261073112487793e+00 -3.022142946720123291e-01 -7.312732338905334473e-01
